{"learner":{"attributes":{"scikit_learn":"{\"_estimator_type\": \"regressor\"}"},"feature_names":[],"feature_types":[],"gradient_booster":{"model":{"gbtree_model_param":{"num_parallel_tree":"1","num_trees":"30"},"iteration_indptr":[0,1,2,3,4,5,6,7,8,9,10,11,12,13,14,15,16,17,18,19,20,21,22,23,24,25,26,27,28,29,30],"tree_info":[0,0,0,0,0,0,0,0,0,0,0,0,0,0,0,0,0,0,0,0,0,0,0,0,0,0,0,0,0,0],"trees":[{"base_weights":[1.0080955E-4,-4.098578E-1,4.5779008E-1,-7.180173E-1,-2.0480049E-1,2.6072568E-1,7.932844E-1,-4.9291915E-1,-9.757206E-1,2.5113264E-2,-4.2249304E-1,4.5129308E-1,7.376603E-2,6.29048E-1,1.0644051E0,-6.650754E-2,-3.2727543E-2,-1.3582726E-1,-8.668073E-2,2.5625268E-2,-6.8079676E-3,-3.2782476E-2,-6.497587E-2,3.323612E-2,6.691625E-2,-8.679985E-3,2.4713151E-2,7.809142E-2,4.0611234E-2,1.21210076E-1,9.041368E-2],"categories":[],"categories_nodes":[],"categories_segments":[],"categories_sizes":[],"default_left":[0,0,0,0,0,0,0,0,0,0,0,0,0,0,0,0,0,0,0,0,0,0,0,0,0,0,0,0,0,0,0],"id":0,"left_children":[1,3,5,7,9,11,13,15,17,19,21,23,25,27,29,-1,-1,-1,-1,-1,-1,-1,-1,-1,-1,-1,-1,-1,-1,-1,-1],"loss_changes":[3.6178753E5,6.4271703E4,6.0232562E4,2.3573672E4,3.0567111E4,2.0448148E4,1.5010391E4,6.1855977E3,7.893172E3,6.398124E3,6.748996E3,7.3644336E3,8.064502E3,7.107586E3,3.0092344E3,0E0,0E0,0E0,0E0,0E0,0E0,0E0,0E0,0E0,0E0,0E0,0E0,0E0,0E0,0E0,0E0],"parents":[2147483647,0,0,1,1,2,2,3,3,4,4,5,5,6,6,7,7,8,8,9,9,10,10,11,11,12,12,13,13,14,14],"right_children":[2,4,6,8,10,12,14,16,18,20,22,24,26,28,30,-1,-1,-1,-1,-1,-1,-1,-1,-1,-1,-1,-1,-1,-1,-1,-1],"split_conditions":[-1.8081822E-1,-7.570803E-1,8.1521344E-1,-3.957659E-3,-3.6148306E-3,-2.8154592E-3,1.93662E0,-1.0162171E0,-1.1101279E0,-4.93303E-3,-1.8164852E-3,2.2066924E-1,2.7254766E-1,1.9248914E-3,5.5273897E-3,-6.650754E-2,-3.2727543E-2,-1.3582726E-1,-8.668073E-2,2.5625268E-2,-6.8079676E-3,-3.2782476E-2,-6.497587E-2,3.323612E-2,6.691625E-2,-8.679985E-3,2.4713151E-2,7.809142E-2,4.0611234E-2,1.21210076E-1,9.041368E-2],"split_indices":[12,12,12,7,7,7,12,12,12,7,7,12,12,7,7,0,0,0,0,0,0,0,0,0,0,0,0,0,0,0,0],"split_type":[0,0,0,0,0,0,0,0,0,0,0,0,0,0,0,0,0,0,0,0,0,0,0,0,0,0,0,0,0,0,0],"sum_hessian":[1.928157E6,1.017114E6,9.11043E5,4.0639E5,6.10724E5,5.73928E5,3.37115E5,2.16919E5,1.89471E5,2.97025E5,3.13699E5,2.84221E5,2.89707E5,2.09942E5,1.27173E5,1.06367E5,1.10552E5,4.1986E4,1.47485E5,8.5346E4,2.11679E5,2.21454E5,9.2245E4,1.83858E5,1.00363E5,1.50406E5,1.39301E5,1.24874E5,8.5068E4,6.6179E4,6.0994E4],"tree_param":{"num_deleted":"0","num_feature":"13","num_nodes":"31","size_leaf_vector":"1"}},{"base_weights":[3.2303196E-5,-3.9244822E-1,3.894079E-1,-6.941253E-1,-2.3239872E-1,1.9854681E-1,6.8820506E-1,-4.1439268E-1,-8.843565E-1,-1.6371785E-2,-4.2478383E-1,4.0345314E-1,4.3704327E-2,5.378625E-1,9.3731517E-1,-1.5642961E-2,-5.28104E-2,-1.3277923E-1,-8.078587E-2,2.2095807E-2,-9.475623E-3,-5.780385E-2,-2.9391596E-2,2.8550787E-2,5.7209518E-2,-1.0772418E-2,1.7838806E-2,7.381464E-2,3.9568827E-2,1.07576825E-1,8.045744E-2],"categories":[],"categories_nodes":[],"categories_segments":[],"categories_sizes":[],"default_left":[0,0,0,0,0,0,0,0,0,0,0,0,0,0,0,0,0,0,0,0,0,0,0,0,0,0,0,0,0,0,0],"id":1,"left_children":[1,3,5,7,9,11,13,15,17,19,21,23,25,27,29,-1,-1,-1,-1,-1,-1,-1,-1,-1,-1,-1,-1,-1,-1,-1,-1],"loss_changes":[2.947775E5,4.6381453E4,5.521939E4,1.7718781E4,2.6084777E4,1.8746848E4,1.41345E4,3.9536074E3,6.7221094E3,5.5000444E3,6.6581367E3,5.0583164E3,6.8637993E3,6.7019375E3,2.6097422E3,0E0,0E0,0E0,0E0,0E0,0E0,0E0,0E0,0E0,0E0,0E0,0E0,0E0,0E0,0E0,0E0],"parents":[2147483647,0,0,1,1,2,2,3,3,4,4,5,5,6,6,7,7,8,8,9,9,10,10,11,11,12,12,13,13,14,14],"right_children":[2,4,6,8,10,12,14,16,18,20,22,24,26,28,30,-1,-1,-1,-1,-1,-1,-1,-1,-1,-1,-1,-1,-1,-1,-1,-1],"split_conditions":[-2.3999234E-1,-8.279022E-1,6.8306327E-1,-4.5061843E-3,-3.7250686E-3,-3.1823171E-3,1.8523389E0,-5.879746E-3,-1.210181E0,-5.1113837E-3,-5.3553665E-1,1.0695197E-1,1.24341555E-1,-4.040401E-4,4.930102E-3,-1.5642961E-2,-5.28104E-2,-1.3277923E-1,-8.078587E-2,2.2095807E-2,-9.475623E-3,-5.780385E-2,-2.9391596E-2,2.8550787E-2,5.7209518E-2,-1.0772418E-2,1.7838806E-2,7.381464E-2,3.9568827E-2,1.07576825E-1,8.045744E-2],"split_indices":[12,12,12,7,7,7,12,7,12,7,12,12,12,7,7,0,0,0,0,0,0,0,0,0,0,0,0,0,0,0,0],"split_type":[0,0,0,0,0,0,0,0,0,0,0,0,0,0,0,0,0,0,0,0,0,0,0,0,0,0,0,0,0,0,0],"sum_hessian":[1.928888E6,9.60614E5,9.68274E5,3.32979E5,6.27635E5,5.90857E5,3.77417E5,1.34784E5,1.98195E5,2.95652E5,3.31983E5,2.54315E5,3.36542E5,2.3537E5,1.42047E5,4.1237E4,9.3547E4,2.9158E4,1.69037E5,7.3403E4,2.22249E5,1.52911E5,1.79072E5,1.49653E5,1.04662E5,1.58423E5,1.78119E5,9.7714E4,1.37656E5,6.9524E4,7.2523E4],"tree_param":{"num_deleted":"0","num_feature":"13","num_nodes":"31","size_leaf_vector":"1"}},{"base_weights":[1.3230617E-5,-3.7570843E-1,3.312269E-1,-6.357355E-1,-2.3563653E-1,1.4049052E-1,5.889401E-1,-4.7372627E-1,-9.1267145E-1,-8.206084E-2,-4.7090596E-1,2.6650354E-1,-9.0095654E-2,4.5459464E-1,8.2643545E-1,-2.0396264E-2,-5.7826996E-2,-1.4746138E-1,-8.63415E-2,1.082126E-2,-1.7838461E-2,-3.9863106E-2,-7.0238076E-2,4.5658734E-2,1.8404728E-2,-2.112902E-3,-3.3539027E-2,6.507806E-2,3.269665E-2,7.064497E-2,9.590196E-2],"categories":[],"categories_nodes":[],"categories_segments":[],"categories_sizes":[],"default_left":[0,0,0,0,0,0,0,0,0,0,0,0,0,0,0,0,0,0,0,0,0,0,0,0,0,0,0,0,0,0,0],"id":2,"left_children":[1,3,5,7,9,11,13,15,17,19,21,23,25,27,29,-1,-1,-1,-1,-1,-1,-1,-1,-1,-1,-1,-1,-1,-1,-1,-1],"loss_changes":[2.3990242E5,3.2896984E4,5.036353E4,1.4186578E4,2.1209393E4,1.710882E4,1.3903766E4,5.6262227E3,3.2291016E3,6.50945E3,3.8783438E3,5.96742E3,3.519926E3,6.9689727E3,2.5039922E3,0E0,0E0,0E0,0E0,0E0,0E0,0E0,0E0,0E0,0E0,0E0,0E0,0E0,0E0,0E0,0E0],"parents":[2147483647,0,0,1,1,2,2,3,3,4,4,5,5,6,6,7,7,8,8,9,9,10,10,11,11,12,12,13,13,14,14],"right_children":[2,4,6,8,10,12,14,16,18,20,22,24,26,28,30,-1,-1,-1,-1,-1,-1,-1,-1,-1,-1,-1,-1,-1,-1,-1,-1],"split_conditions":[-2.958477E-1,-8.5225713E-1,5.251638E-1,-3.6148306E-3,-3.25624E-3,-2.423417E-3,1.7734786E0,-5.5518714E-3,-1.2952178E0,-4.7290227E-3,-1.2338171E-3,-4.153561E-3,-1.09992936E-4,-1.2338171E-3,2.5119011E0,-2.0396264E-2,-5.7826996E-2,-1.4746138E-1,-8.63415E-2,1.082126E-2,-1.7838461E-2,-3.9863106E-2,-7.0238076E-2,4.5658734E-2,1.8404728E-2,-2.112902E-3,-3.3539027E-2,6.507806E-2,3.269665E-2,7.064497E-2,9.590196E-2],"split_indices":[12,12,12,7,7,7,12,7,12,7,7,7,7,7,12,0,0,0,0,0,0,0,0,0,0,0,0,0,0,0,0],"split_type":[0,0,0,0,0,0,0,0,0,0,0,0,0,0,0,0,0,0,0,0,0,0,0,0,0,0,0,0,0,0,0],"sum_hessian":[1.92779E6,9.03209E5,1.024581E6,3.16206E5,5.87003E5,5.88803E5,4.35778E5,1.995E5,1.16706E5,3.55165E5,2.31838E5,3.80735E5,2.08068E5,2.78334E5,1.57444E5,5.5721E4,1.43779E5,9.403E3,1.07303E5,1.19369E5,2.35796E5,1.76676E5,5.5162E4,1.15189E5,2.65546E5,1.62407E5,4.5661E4,1.09701E5,1.68633E5,8.2652E4,7.4792E4],"tree_param":{"num_deleted":"0","num_feature":"13","num_nodes":"31","size_leaf_vector":"1"}},{"base_weights":[6.4571126E-5,-2.7475554E-1,3.732366E-1,-4.9873468E-1,-9.6492015E-2,2.542749E-1,6.6016006E-1,-3.8302842E-1,-7.7873284E-1,6.551815E-2,-2.7487427E-1,3.6575115E-1,8.431963E-2,5.4414576E-1,8.295418E-1,-5.6975085E-2,-2.791484E-2,-1.0441359E-1,-6.748463E-2,2.123296E-2,-2.6276053E-3,-2.0450981E-2,-4.736047E-2,2.6128644E-2,5.436909E-2,-9.377422E-3,2.1070061E-2,7.364813E-2,3.2359496E-2,9.5459014E-2,6.4857155E-2],"categories":[],"categories_nodes":[],"categories_segments":[],"categories_sizes":[],"default_left":[0,0,0,0,0,0,0,0,0,0,0,0,0,0,0,0,0,0,0,0,0,0,0,0,0,0,0,0,0,0,0],"id":3,"left_children":[1,3,5,7,9,11,13,15,17,19,21,23,25,27,29,-1,-1,-1,-1,-1,-1,-1,-1,-1,-1,-1,-1,-1,-1,-1,-1],"loss_changes":[1.9785827E5,4.436142E4,2.7928398E4,1.5951969E4,1.7879303E4,1.0958602E4,4.7121094E3,6.757949E3,3.9690078E3,4.36923E3,4.1174297E3,6.492828E3,5.1568423E3,6.037496E3,2.2054453E3,0E0,0E0,0E0,0E0,0E0,0E0,0E0,0E0,0E0,0E0,0E0,0E0,0E0,0E0,0E0,0E0],"parents":[2147483647,0,0,1,1,2,2,3,3,4,4,5,5,6,6,7,7,8,8,9,9,10,10,11,11,12,12,13,13,14,14],"right_children":[2,4,6,8,10,12,14,16,18,20,22,24,26,28,30,-1,-1,-1,-1,-1,-1,-1,-1,-1,-1,-1,-1,-1,-1,-1,-1],"split_conditions":[-7.876258E-2,-6.7474777E-1,1.2813697E0,-3.1243726E-3,-3.4038858E-3,-1.8836888E-3,2.1510105E0,-1.0437902E0,-1.0345439E0,-4.5698523E-3,-1.4892946E-3,3.49077E-1,4.396518E-1,3.119298E-3,6.987966E-3,-5.6975085E-2,-2.791484E-2,-1.0441359E-1,-6.748463E-2,2.123296E-2,-2.6276053E-3,-2.0450981E-2,-4.736047E-2,2.6128644E-2,5.436909E-2,-9.377422E-3,2.1070061E-2,7.364813E-2,3.2359496E-2,9.5459014E-2,6.4857155E-2],"split_indices":[12,12,12,7,7,7,12,12,12,7,7,12,12,7,7,0,0,0,0,0,0,0,0,0,0,0,0,0,0,0,0],"split_type":[0,0,0,0,0,0,0,0,0,0,0,0,0,0,0,0,0,0,0,0,0,0,0,0,0,0,0,0,0,0,0],"sum_hessian":[1.929284E6,1.111055E6,8.18229E5,4.9239E5,6.18665E5,5.78414E5,2.39815E5,3.48414E5,1.43976E5,3.24211E5,2.94454E5,3.49301E5,2.29113E5,1.42332E5,9.7483E4,1.24544E5,2.2387E5,4.05E4,1.03476E5,1.24727E5,1.99484E5,2.1746E5,7.6994E4,2.20092E5,1.29209E5,9.51E4,1.34013E5,7.6028E4,6.6304E4,5.7646E4,3.9837E4],"tree_param":{"num_deleted":"0","num_feature":"13","num_nodes":"31","size_leaf_vector":"1"}},{"base_weights":[-4.9911494E-5,-3.3259177E-1,2.529348E-1,-2.446085E-1,-5.91983E-1,1.3602418E-1,5.4355067E-1,-4.7520623E-1,-1.3907722E-1,-8.994735E-1,-4.8833537E-1,3.1047255E-1,3.858911E-2,4.476976E-1,7.358739E-1,5.0898846E-3,-5.3591974E-2,7.7296416E-3,-2.1459496E-2,-1.622809E-1,-8.629094E-2,-4.374762E-2,-7.116961E-2,2.0813102E-2,4.832471E-2,-9.234505E-3,1.7651774E-2,5.7565566E-2,2.533712E-2,8.518481E-2,5.8243908E-2],"categories":[],"categories_nodes":[],"categories_segments":[],"categories_sizes":[],"default_left":[0,0,0,0,0,0,0,0,0,0,0,0,0,0,0,0,0,0,0,0,0,0,0,0,0,0,0,0,0,0,0],"id":4,"left_children":[1,3,5,7,9,11,13,15,17,19,21,23,25,27,29,-1,-1,-1,-1,-1,-1,-1,-1,-1,-1,-1,-1,-1,-1,-1,-1],"loss_changes":[1.6238036E5,1.9032352E4,3.724475E4,1.5154215E4,6.731375E3,1.3287359E4,5.797E3,6.2450117E3,6.9807803E3,1.4069062E3,1.7942852E3,4.953498E3,9.058371E3,5.218629E3,1.8608086E3,0E0,0E0,0E0,0E0,0E0,0E0,0E0,0E0,0E0,0E0,0E0,0E0,0E0,0E0,0E0,0E0],"parents":[2147483647,0,0,1,1,2,2,3,3,4,4,5,5,6,6,7,7,8,8,9,9,10,10,11,11,12,12,13,13,14,14],"right_children":[2,4,6,8,10,12,14,16,18,20,22,24,26,28,30,-1,-1,-1,-1,-1,-1,-1,-1,-1,-1,-1,-1,-1,-1,-1,-1],"split_conditions":[-3.6568192E-1,-2.7500843E-3,9.060413E-1,-9.2773765E-1,-9.106395E-1,-3.458308E-3,2.0900264E0,-6.7002857E-3,-4.8528216E-3,-1.4323484E0,-4.040401E-4,6.259329E-2,1.5006094E-1,2.5738925E-3,6.576522E-3,5.0898846E-3,-5.3591974E-2,7.7296416E-3,-2.1459496E-2,-1.622809E-1,-8.629094E-2,-4.374762E-2,-7.116961E-2,2.0813102E-2,4.832471E-2,-9.234505E-3,1.7651774E-2,5.7565566E-2,2.533712E-2,8.518481E-2,5.8243908E-2],"split_indices":[12,7,12,12,12,7,12,7,7,12,7,12,12,7,7,0,0,0,0,0,0,0,0,0,0,0,0,0,0,0,0],"split_type":[0,0,0,0,0,0,0,0,0,0,0,0,0,0,0,0,0,0,0,0,0,0,0,0,0,0,0,0,0,0,0],"sum_hessian":[1.930156E6,8.3395E5,1.096206E6,6.22728E5,2.11222E5,7.81729E5,3.14477E5,1.95511E5,4.27217E5,5.3247E4,1.57975E5,2.80148E5,5.01581E5,2.09878E5,1.04599E5,2.0228E4,1.75283E5,1.10529E5,3.16688E5,2.56E3,5.0687E4,1.28678E5,2.9297E4,1.75936E5,1.04212E5,2.57315E5,2.44266E5,1.26548E5,8.333E4,5.9569E4,4.503E4],"tree_param":{"num_deleted":"0","num_feature":"13","num_nodes":"31","size_leaf_vector":"1"}},{"base_weights":[-6.900339E-5,-3.1689876E-1,2.1634151E-1,-1.532898E-1,-4.373649E-1,6.965302E-2,4.154137E-1,-3.823299E-1,-5.0980866E-2,-7.0944995E-1,-3.5248247E-1,1.7199235E-1,-1.1247211E-1,3.1419462E-1,5.996197E-1,3.7751694E-3,-4.8298057E-2,2.0937003E-2,-1.0904151E-2,-1.2755492E-1,-6.719062E-2,-2.8335527E-2,-5.25556E-2,3.413275E-2,1.0735007E-2,-5.2567297E-3,-3.1682737E-2,4.52057E-2,1.680721E-2,7.22004E-2,4.9068745E-2],"categories":[],"categories_nodes":[],"categories_segments":[],"categories_sizes":[],"default_left":[0,0,0,0,0,0,0,0,0,0,0,0,0,0,0,0,0,0,0,0,0,0,0,0,0,0,0,0,0,0,0],"id":5,"left_children":[1,3,5,7,9,11,13,15,17,19,21,23,25,27,29,-1,-1,-1,-1,-1,-1,-1,-1,-1,-1,-1,-1,-1,-1,-1,-1],"loss_changes":[1.3218262E5,1.5420406E4,3.3448703E4,7.774695E3,1.0406648E4,1.2291984E4,9.060469E3,4.331503E3,3.4668196E3,2.276414E3,4.109051E3,4.6218037E3,2.904488E3,6.317793E3,2.297082E3,0E0,0E0,0E0,0E0,0E0,0E0,0E0,0E0,0E0,0E0,0E0,0E0,0E0,0E0,0E0,0E0],"parents":[2147483647,0,0,1,1,2,2,3,3,4,4,5,5,6,6,7,7,8,8,9,9,10,10,11,11,12,12,13,13,14,14],"right_children":[2,4,6,8,10,12,14,16,18,20,22,24,26,28,30,-1,-1,-1,-1,-1,-1,-1,-1,-1,-1,-1,-1,-1,-1,-1,-1],"split_conditions":[-4.079405E-1,-4.153561E-3,4.1124693E-1,-9.981072E-1,-9.537485E-1,-2.5940062E-3,1.6980808E0,-6.7002857E-3,-5.5518714E-3,-1.3968965E0,-2.153898E-3,-4.3441197E-3,-4.040401E-4,-8.9007616E-4,4.4073532E-3,3.7751694E-3,-4.8298057E-2,2.0937003E-2,-1.0904151E-2,-1.2755492E-1,-6.719062E-2,-2.8335527E-2,-5.25556E-2,3.413275E-2,1.0735007E-2,-5.2567297E-3,-3.1682737E-2,4.52057E-2,1.680721E-2,7.22004E-2,4.9068745E-2],"split_indices":[12,7,12,12,12,7,12,7,7,12,7,7,7,7,7,0,0,0,0,0,0,0,0,0,0,0,0,0,0,0,0],"split_type":[0,0,0,0,0,0,0,0,0,0,0,0,0,0,0,0,0,0,0,0,0,0,0,0,0,0,0,0,0,0,0],"sum_hessian":[1.927834E6,7.82393E5,1.145441E6,3.31786E5,4.50607E5,6.5949E5,4.85951E5,1.02443E5,2.29343E5,1.07147E5,3.4346E5,4.22231E5,2.37259E5,3.13622E5,1.72329E5,1.9801E4,8.2642E4,4.1819E4,1.87524E5,6.662E3,1.00485E5,2.45434E5,9.8026E4,1.16651E5,3.0558E5,1.83476E5,5.3783E4,1.61371E5,1.52251E5,8.1151E4,9.1178E4],"tree_param":{"num_deleted":"0","num_feature":"13","num_nodes":"31","size_leaf_vector":"1"}},{"base_weights":[1.1579866E-4,-2.1392396E-1,2.6465175E-1,-3.6081278E-1,-6.2267143E-2,1.7005217E-1,4.7292644E-1,-1.719685E-1,-4.6868768E-1,1.1215119E-1,-1.6721752E-1,2.5089607E-1,-1.3313921E-2,3.9889508E-1,6.413502E-1,-3.7601486E-2,-8.417299E-3,-7.719982E-2,-4.1576486E-2,3.4882393E-2,7.3696026E-3,-1.0130565E-2,-3.1118661E-2,1.6324766E-2,3.688111E-2,4.125852E-3,-2.5216436E-2,5.2172866E-2,1.9263444E-2,7.33416E-2,4.7546256E-2],"categories":[],"categories_nodes":[],"categories_segments":[],"categories_sizes":[],"default_left":[0,0,0,0,0,0,0,0,0,0,0,0,0,0,0,0,0,0,0,0,0,0,0,0,0,0,0,0,0,0,0],"id":6,"left_children":[1,3,5,7,9,11,13,15,17,19,21,23,25,27,29,-1,-1,-1,-1,-1,-1,-1,-1,-1,-1,-1,-1,-1,-1,-1,-1],"loss_changes":[1.0919202E5,2.3746305E4,1.699336E4,1.1031078E4,9.600676E3,8.792195E3,3.3586758E3,3.5267314E3,5.531711E3,1.7932014E3,3.1071934E3,4.2541016E3,2.3655518E3,4.7411484E3,1.2558789E3,0E0,0E0,0E0,0E0,0E0,0E0,0E0,0E0,0E0,0E0,0E0,0E0,0E0,0E0,0E0,0E0],"parents":[2147483647,0,0,1,1,2,2,3,3,4,4,5,5,6,6,7,7,8,8,9,9,10,10,11,11,12,12,13,13,14,14],"right_children":[2,4,6,8,10,12,14,16,18,20,22,24,26,28,30,-1,-1,-1,-1,-1,-1,-1,-1,-1,-1,-1,-1,-1,-1,-1,-1],"split_conditions":[-1.2893978E-1,-6.387398E-1,1.1097314E0,-4.5061843E-3,-3.9200885E-3,-1.5653674E-3,2.3929675E0,-1.1296221E0,-1.1296221E0,-5.407783E-3,-2.0995291E-3,2.567716E-1,1.6295451E-3,3.725398E-3,7.892946E-3,-3.7601486E-2,-8.417299E-3,-7.719982E-2,-4.1576486E-2,3.4882393E-2,7.3696026E-3,-1.0130565E-2,-3.1118661E-2,1.6324766E-2,3.688111E-2,4.125852E-3,-2.5216436E-2,5.2172866E-2,1.9263444E-2,7.33416E-2,4.7546256E-2],"split_indices":[12,12,12,7,7,7,12,12,12,7,7,12,7,7,7,0,0,0,0,0,0,0,0,0,0,0,0,0,0,0,0],"split_type":[0,0,0,0,0,0,0,0,0,0,0,0,0,0,0,0,0,0,0,0,0,0,0,0,0,0,0,0,0,0,0],"sum_hessian":[1.928463E6,1.065971E6,8.62492E5,5.41497E5,5.24474E5,5.93103E5,2.69389E5,1.96867E5,3.4463E5,1.97029E5,3.27445E5,4.11623E5,1.8148E5,1.87136E5,8.2253E4,5.9223E4,1.37644E5,5.1197E4,2.93433E5,2.7538E4,1.69491E5,2.24614E5,1.02831E5,2.36116E5,1.75507E5,1.47728E5,3.3752E4,1.17287E5,6.9849E4,5.2894E4,2.9359E4],"tree_param":{"num_deleted":"0","num_feature":"13","num_nodes":"31","size_leaf_vector":"1"}},{"base_weights":[-9.4696574E-5,-1.7656904E-1,2.621281E-1,-3.1854278E-1,-3.7878346E-2,1.9284175E-1,4.7971582E-1,-7.096116E-2,-3.8529125E-1,6.167506E-2,-1.9040899E-1,2.968542E-1,1.0019778E-1,5.8182305E-1,3.7562665E-1,-2.5188092E-2,2.8666924E-3,-6.940936E-2,-3.3689942E-2,1.9041533E-2,-3.1625768E-4,-1.4773408E-2,-3.760809E-2,2.3503523E-2,4.620755E-2,8.279661E-5,2.1958089E-2,5.150754E-2,7.125849E-2,2.2753017E-2,5.3105682E-2],"categories":[],"categories_nodes":[],"categories_segments":[],"categories_sizes":[],"default_left":[0,0,0,0,0,0,0,0,0,0,0,0,0,0,0,0,0,0,0,0,0,0,0,0,0,0,0,0,0,0,0],"id":7,"left_children":[1,3,5,7,9,11,13,15,17,19,21,23,25,27,29,-1,-1,-1,-1,-1,-1,-1,-1,-1,-1,-1,-1,-1,-1,-1,-1],"loss_changes":[8.922856E4,2.2694082E4,1.1693578E4,9.411867E3,8.853047E3,5.669086E3,1.9908477E3,2.1799492E3,6.7032734E3,2.9446475E3,1.8242988E3,2.8306914E3,3.6913862E3,8.250215E2,2.1353428E3,0E0,0E0,0E0,0E0,0E0,0E0,0E0,0E0,0E0,0E0,0E0,0E0,0E0,0E0,0E0,0E0],"parents":[2147483647,0,0,1,1,2,2,3,3,4,4,5,5,6,6,7,7,8,8,9,9,10,10,11,11,12,12,13,13,14,14],"right_children":[2,4,6,8,10,12,14,16,18,20,22,24,26,28,30,-1,-1,-1,-1,-1,-1,-1,-1,-1,-1,-1,-1,-1,-1,-1,-1],"split_conditions":[-3.0178592E-2,-6.0355973E-1,1.6187745E0,-5.1113837E-3,-3.04345E-3,-2.2943064E-3,4.6620257E-3,-1.1493677E0,-1.1493677E0,-4.5061843E-3,-7.202281E-4,4.709894E-1,7.39037E-1,2.2532887E0,2.5872118E0,-2.5188092E-2,2.8666924E-3,-6.940936E-2,-3.3689942E-2,1.9041533E-2,-3.1625768E-4,-1.4773408E-2,-3.760809E-2,2.3503523E-2,4.620755E-2,8.279661E-5,2.1958089E-2,5.150754E-2,7.125849E-2,2.2753017E-2,5.3105682E-2],"split_indices":[12,12,12,7,7,7,7,12,12,7,7,12,12,12,12,0,0,0,0,0,0,0,0,0,0,0,0,0,0,0,0],"split_type":[0,0,0,0,0,0,0,0,0,0,0,0,0,0,0,0,0,0,0,0,0,0,0,0,0,0,0,0,0,0,0],"sum_hessian":[1.928197E6,1.152543E6,7.75654E5,5.6953E5,5.83013E5,5.88318E5,1.87336E5,1.20941E5,4.48589E5,3.52769E5,2.30244E5,2.77153E5,3.11165E5,9.4566E4,9.277E4,4.2948E4,7.7993E4,6.0772E4,3.87817E5,1.18157E5,2.34612E5,1.87216E5,4.3028E4,2.01691E5,7.5462E4,1.69817E5,1.41348E5,6.2611E4,3.1955E4,4.7507E4,4.5263E4],"tree_param":{"num_deleted":"0","num_feature":"13","num_nodes":"31","size_leaf_vector":"1"}},{"base_weights":[-1.5833318E-4,-2.4292612E-1,1.5584289E-1,-1.8022007E-1,-4.5814797E-1,6.216401E-2,3.2947055E-1,-3.2928097E-1,-1.1588687E-1,-6.374771E-1,-3.6871547E-1,2.2017103E-1,-1.11950375E-2,2.702685E-1,4.8717186E-1,9.932862E-3,-3.842243E-2,1.2817904E-2,-1.5420722E-2,-5.635304E-2,-8.925533E-2,-3.3541664E-2,-6.0794927E-2,1.5511544E-2,3.530502E-2,2.8912448E-3,-1.9916492E-2,3.6982793E-2,1.4134298E-2,5.475988E-2,3.232312E-2],"categories":[],"categories_nodes":[],"categories_segments":[],"categories_sizes":[],"default_left":[0,0,0,0,0,0,0,0,0,0,0,0,0,0,0,0,0,0,0,0,0,0,0,0,0,0,0,0,0,0,0],"id":8,"left_children":[1,3,5,7,9,11,13,15,17,19,21,23,25,27,29,-1,-1,-1,-1,-1,-1,-1,-1,-1,-1,-1,-1,-1,-1,-1,-1],"loss_changes":[7.302016E4,1.0179406E4,1.9092092E4,5.601211E3,2.7290703E3,8.837585E3,3.8404531E3,4.1468457E3,3.8159922E3,1.0675996E3,9.0438184E2,2.0897178E3,3.9255022E3,3.838955E3,1.1120859E3,0E0,0E0,0E0,0E0,0E0,0E0,0E0,0E0,0E0,0E0,0E0,0E0,0E0,0E0,0E0,0E0],"parents":[2147483647,0,0,1,1,2,2,3,3,4,4,5,5,6,6,7,7,8,8,9,9,10,10,11,11,12,12,13,13,14,14],"right_children":[2,4,6,8,10,12,14,16,18,20,22,24,26,28,30,-1,-1,-1,-1,-1,-1,-1,-1,-1,-1,-1,-1,-1,-1,-1,-1],"split_conditions":[-4.4511482E-1,-2.6143314E-3,5.8390194E-1,-9.802091E-1,-8.853453E-1,-3.761757E-3,2.0302474E0,-6.7002857E-3,-5.3247465E-3,-1.8654685E-4,3.2328858E-4,7.607707E-3,-8.3411153E-4,8.4193825E-4,8.409668E-3,9.932862E-3,-3.842243E-2,1.2817904E-2,-1.5420722E-2,-5.635304E-2,-8.925533E-2,-3.3541664E-2,-6.0794927E-2,1.5511544E-2,3.530502E-2,2.8912448E-3,-1.9916492E-2,3.6982793E-2,1.4134298E-2,5.475988E-2,3.232312E-2],"split_indices":[12,7,12,12,12,7,12,7,7,7,7,12,7,7,7,0,0,0,0,0,0,0,0,0,0,0,0,0,0,0,0],"split_type":[0,0,0,0,0,0,0,0,0,0,0,0,0,0,0,0,0,0,0,0,0,0,0,0,0,0,0,0,0,0,0],"sum_hessian":[1.928072E6,7.54275E5,1.173797E6,5.84097E5,1.70178E5,7.62435E5,4.11362E5,1.7609E5,4.08007E5,5.6626E4,1.13552E5,2.41744E5,5.20691E5,2.99086E5,1.12276E5,2.0008E4,1.56082E5,5.5367E4,3.5264E5,4.3902E4,1.2724E4,9.968E4,1.3872E4,1.62291E5,7.9453E4,4.29128E5,9.1563E4,1.68762E5,1.30324E5,8.2036E4,3.024E4],"tree_param":{"num_deleted":"0","num_feature":"13","num_nodes":"31","size_leaf_vector":"1"}},{"base_weights":[4.9239392E-5,-1.4066817E-1,2.2188875E-1,-2.8206098E-1,-4.5353256E-2,1.5951118E-1,3.8236755E-1,-1.4865136E-1,-3.8494533E-1,9.6569955E-2,-1.2265983E-1,2.0707375E-1,-4.4467248E-2,4.9055615E-1,2.9404843E-1,-3.3602305E-2,-8.994017E-3,-3.3794634E-2,-6.2123794E-2,3.3471238E-2,7.251661E-3,-7.357017E-3,-2.4200404E-2,3.755949E-2,1.7280085E-2,-1.2621795E-3,-4.5723077E-2,6.4889975E-2,4.5137014E-2,1.7754931E-2,4.4396244E-2],"categories":[],"categories_nodes":[],"categories_segments":[],"categories_sizes":[],"default_left":[0,0,0,0,0,0,0,0,0,0,0,0,0,0,0,0,0,0,0,0,0,0,0,0,0,0,0,0,0,0,0],"id":9,"left_children":[1,3,5,7,9,11,13,15,17,19,21,23,25,27,29,-1,-1,-1,-1,-1,-1,-1,-1,-1,-1,-1,-1,-1,-1,-1,-1],"loss_changes":[6.021101E4,1.5905221E4,7.493824E3,6.5227812E3,7.734604E3,5.230042E3,2.0020176E3,2.2762466E3,2.9794922E3,1.4239363E3,2.673686E3,2.5247852E3,1.3398672E3,5.8404297E2,2.0147529E3,0E0,0E0,0E0,0E0,0E0,0E0,0E0,0E0,0E0,0E0,0E0,0E0,0E0,0E0,0E0,0E0],"parents":[2147483647,0,0,1,1,2,2,3,3,4,4,5,5,6,6,7,7,8,8,9,9,10,10,11,11,12,12,13,13,14,14],"right_children":[2,4,6,8,10,12,14,16,18,20,22,24,26,28,30,-1,-1,-1,-1,-1,-1,-1,-1,-1,-1,-1,-1,-1,-1,-1,-1],"split_conditions":[-1.7517554E-3,-6.967664E-1,1.4719474E0,-4.285318E-3,-3.973421E-3,1.3861564E-4,3.944169E-3,-1.1896403E0,-1.4072722E-3,-5.6070266E-3,-2.0103937E-3,-3.957659E-3,6.987966E-3,5.213113E-5,2.5872118E0,-3.3602305E-2,-8.994017E-3,-3.3794634E-2,-6.2123794E-2,3.3471238E-2,7.251661E-3,-7.357017E-3,-2.4200404E-2,3.755949E-2,1.7280085E-2,-1.2621795E-3,-4.5723077E-2,6.4889975E-2,4.5137014E-2,1.7754931E-2,4.4396244E-2],"split_indices":[12,12,12,7,7,7,7,12,7,7,7,7,7,7,12,0,0,0,0,0,0,0,0,0,0,0,0,0,0,0,0],"split_type":[0,0,0,0,0,0,0,0,0,0,0,0,0,0,0,0,0,0,0,0,0,0,0,0,0,0,0,0,0,0,0],"sum_hessian":[1.928807E6,1.180189E6,7.48618E5,4.75225E5,7.04964E5,5.39081E5,2.09537E5,2.06918E5,2.68307E5,2.4859E5,4.56374E5,4.37149E5,1.01932E5,9.4173E4,1.15364E5,4.9366E4,1.57552E5,2.23796E5,4.4511E4,2.2804E4,2.25786E5,3.23366E5,1.33008E5,7.3878E4,3.63271E5,9.4632E4,7.3E3,1.8679E4,7.5494E4,6.4918E4,5.0446E4],"tree_param":{"num_deleted":"0","num_feature":"13","num_nodes":"31","size_leaf_vector":"1"}},{"base_weights":[-4.7704307E-5,-2.0910104E-1,1.2336904E-1,-1.3505106E-1,-3.3981302E-1,2.5748495E-2,2.4483056E-1,-3.086949E-1,-9.0764165E-2,-5.36355E-1,-2.8925782E-1,1.0931113E-1,-8.5695334E-2,1.9052677E-1,3.6848435E-1,1.0436486E-2,-4.1600756E-2,2.0397132E-2,-1.2014645E-2,-1.04835205E-1,-5.04587E-2,-2.5410173E-2,-4.5667756E-2,2.640487E-2,6.9359094E-3,-6.172284E-3,-3.4453686E-2,2.5674466E-2,4.422306E-3,4.323099E-2,2.599409E-2],"categories":[],"categories_nodes":[],"categories_segments":[],"categories_sizes":[],"default_left":[0,0,0,0,0,0,0,0,0,0,0,0,0,0,0,0,0,0,0,0,0,0,0,0,0,0,0,0,0,0,0],"id":10,"left_children":[1,3,5,7,9,11,13,15,17,19,21,23,25,27,29,-1,-1,-1,-1,-1,-1,-1,-1,-1,-1,-1,-1,-1,-1,-1,-1],"loss_changes":[4.9748305E4,6.9279707E3,1.4375779E4,3.5137227E3,2.5718066E3,6.259694E3,3.6275645E3,4.1158516E3,3.1528286E3,8.6083887E2,1.2117148E3,2.3747788E3,1.787271E3,3.636707E3,1.1419668E3,0E0,0E0,0E0,0E0,0E0,0E0,0E0,0E0,0E0,0E0,0E0,0E0,0E0,0E0,0E0,0E0],"parents":[2147483647,0,0,1,1,2,2,3,3,4,4,5,5,6,6,7,7,8,8,9,9,10,10,11,11,12,12,13,13,14,14],"right_children":[2,4,6,8,10,12,14,16,18,20,22,24,26,28,30,-1,-1,-1,-1,-1,-1,-1,-1,-1,-1,-1,-1,-1,-1,-1,-1],"split_conditions":[-4.7040907E-1,-3.3491952E-3,3.1129068E-1,-1.0908791E0,-9.981072E-1,-2.9629448E-3,1.7332257E0,-6.7002857E-3,-5.7303323E-3,-1.4323484E0,-8.3411153E-4,-4.705113E-3,6.245349E-4,3.2328858E-4,6.1900606E-3,1.0436486E-2,-4.1600756E-2,2.0397132E-2,-1.2014645E-2,-1.04835205E-1,-5.04587E-2,-2.5410173E-2,-4.5667756E-2,2.640487E-2,6.9359094E-3,-6.172284E-3,-3.4453686E-2,2.5674466E-2,4.422306E-3,4.323099E-2,2.599409E-2],"split_indices":[12,7,12,12,12,7,12,7,7,12,7,7,7,7,7,0,0,0,0,0,0,0,0,0,0,0,0,0,0,0,0],"split_type":[0,0,0,0,0,0,0,0,0,0,0,0,0,0,0,0,0,0,0,0,0,0,0,0,0,0,0,0,0,0,0],"sum_hessian":[1.928176E6,7.15761E5,1.212415E6,4.56915E5,2.58846E5,6.72177E5,5.40238E5,9.2851E4,3.64064E5,5.2957E4,2.05889E5,3.84141E5,2.88036E5,3.75386E5,1.64852E5,1.9148E4,7.3703E4,3.3003E4,3.31061E5,3.092E3,4.9865E4,1.7016E5,3.5729E4,7.8828E4,3.05313E5,2.63622E5,2.4414E4,2.58422E5,1.16964E5,1.03808E5,6.1044E4],"tree_param":{"num_deleted":"0","num_feature":"13","num_nodes":"31","size_leaf_vector":"1"}},{"base_weights":[-2.0281546E-5,-1.3305601E-1,1.5974697E-1,-2.3534621E-1,-5.4233357E-2,9.739253E-2,2.8967628E-1,-3.2485973E-2,-2.8916684E-1,6.789544E-2,-1.1779329E-1,1.526064E-1,-5.7763424E-2,3.642852E-1,2.1233329E-1,-1.8092895E-2,4.323607E-3,-7.562861E-2,-2.660046E-2,3.225086E-2,4.921918E-3,-7.003241E-3,-2.0468442E-2,3.161058E-2,1.2051436E-2,-2.6118935E-3,-3.8518827E-2,3.352612E-2,5.3686E-2,9.0949405E-3,3.552487E-2],"categories":[],"categories_nodes":[],"categories_segments":[],"categories_sizes":[],"default_left":[0,0,0,0,0,0,0,0,0,0,0,0,0,0,0,0,0,0,0,0,0,0,0,0,0,0,0,0,0,0,0],"id":11,"left_children":[1,3,5,7,9,11,13,15,17,19,21,23,25,27,29,-1,-1,-1,-1,-1,-1,-1,-1,-1,-1,-1,-1,-1,-1,-1,-1],"loss_changes":[4.0983777E4,8.4830625E3,7.0977617E3,4.9993613E3,4.6127095E3,5.071447E3,1.6393203E3,1.0792328E3,3.915248E3,9.672012E2,1.6219248E3,2.2908984E3,1.6098604E3,7.2411914E2,2.4199097E3,0E0,0E0,0E0,0E0,0E0,0E0,0E0,0E0,0E0,0E0,0E0,0E0,0E0,0E0,0E0,0E0],"parents":[2147483647,0,0,1,1,2,2,3,3,4,4,5,5,6,6,7,7,8,8,9,9,10,10,11,11,12,12,13,13,14,14],"right_children":[2,4,6,8,10,12,14,16,18,20,22,24,26,28,30,-1,-1,-1,-1,-1,-1,-1,-1,-1,-1,-1,-1,-1,-1,-1,-1],"split_conditions":[-1.4948058E-1,-7.1910644E-1,1.0329111E0,-5.2116406E-3,-4.080463E-3,-1.3660023E-3,3.515396E-3,-1.2415187E0,-1.3172364E0,-5.800634E-3,-2.37278E-3,-4.265819E-3,3.3149556E-3,2.2532887E0,2.3929675E0,-1.8092895E-2,4.323607E-3,-7.562861E-2,-2.660046E-2,3.225086E-2,4.921918E-3,-7.003241E-3,-2.0468442E-2,3.161058E-2,1.2051436E-2,-2.6118935E-3,-3.8518827E-2,3.352612E-2,5.3686E-2,9.0949405E-3,3.552487E-2],"split_indices":[12,12,12,7,7,7,7,12,12,7,7,7,7,12,12,0,0,0,0,0,0,0,0,0,0,0,0,0,0,0,0],"split_type":[0,0,0,0,0,0,0,0,0,0,0,0,0,0,0,0,0,0,0,0,0,0,0,0,0,0,0,0,0,0,0],"sum_hessian":[1.928215E6,1.052126E6,8.76089E5,4.57898E5,5.94228E5,5.91989E5,2.841E5,9.6012E4,3.61886E5,2.034E5,3.90828E5,4.36615E5,1.55374E5,1.44604E5,1.39496E5,3.2432E4,6.358E4,1.7095E4,3.44791E5,1.3899E4,1.89501E5,2.52203E5,1.38625E5,7.1637E4,3.64978E5,1.41682E5,1.3692E4,1.23788E5,2.0816E4,7.5431E4,6.4065E4],"tree_param":{"num_deleted":"0","num_feature":"13","num_nodes":"31","size_leaf_vector":"1"}},{"base_weights":[1.2443228E-4,-1.4469457E-1,1.2109888E-1,-9.3781196E-2,-2.756919E-1,6.5751575E-2,2.542989E-1,-2.0465212E-1,-4.296413E-2,-4.0479153E-1,-2.0300095E-1,1.2306077E-1,-4.3332286E-2,2.9518005E-1,1.4582181E-1,7.945115E-3,-2.5184337E-2,1.4559083E-2,-6.5276236E-3,-3.6450986E-2,-6.705905E-2,-1.8699283E-2,-4.832096E-2,7.14763E-3,2.214623E-2,-1.198398E-3,-2.5527498E-2,2.6449485E-2,4.4523016E-2,-2.1241799E-3,2.7532948E-2],"categories":[],"categories_nodes":[],"categories_segments":[],"categories_sizes":[],"default_left":[0,0,0,0,0,0,0,0,0,0,0,0,0,0,0,0,0,0,0,0,0,0,0,0,0,0,0,0,0,0,0],"id":12,"left_children":[1,3,5,7,9,11,13,15,17,19,21,23,25,27,29,-1,-1,-1,-1,-1,-1,-1,-1,-1,-1,-1,-1,-1,-1,-1,-1],"loss_changes":[3.379742E4,5.8560703E3,7.748998E3,3.5624219E3,2.3060918E3,4.6421123E3,1.3682598E3,2.6643496E3,1.8240682E3,9.475674E2,7.0515137E2,2.4710068E3,1.6992314E3,1.0316797E3,1.8272755E3,0E0,0E0,0E0,0E0,0E0,0E0,0E0,0E0,0E0,0E0,0E0,0E0,0E0,0E0,0E0,0E0],"parents":[2147483647,0,0,1,1,2,2,3,3,4,4,5,5,6,6,7,7,8,8,9,9,10,10,11,11,12,12,13,13,14,14],"right_children":[2,4,6,8,10,12,14,16,18,20,22,24,26,28,30,-1,-1,-1,-1,-1,-1,-1,-1,-1,-1,-1,-1,-1,-1,-1,-1],"split_conditions":[-3.303665E-1,-2.8792473E-3,9.3176067E-1,-9.106395E-1,-8.0392885E-1,-2.153898E-3,5.856686E-3,-6.214612E-3,-5.4538203E-3,4.174841E-4,1.2133357E-3,1.711684E-1,1.3464781E-3,2.3929675E0,2.2532887E0,7.945115E-3,-2.5184337E-2,1.4559083E-2,-6.5276236E-3,-3.6450986E-2,-6.705905E-2,-1.8699283E-2,-4.832096E-2,7.14763E-3,2.214623E-2,-1.198398E-3,-2.5527498E-2,2.6449485E-2,4.4523016E-2,-2.1241799E-3,2.7532948E-2],"split_indices":[12,7,12,12,12,7,7,7,7,7,7,12,7,12,12,0,0,0,0,0,0,0,0,0,0,0,0,0,0,0,0],"split_type":[0,0,0,0,0,0,0,0,0,0,0,0,0,0,0,0,0,0,0,0,0,0,0,0,0,0,0,0,0,0,0],"sum_hessian":[1.929141E6,8.78038E5,1.051103E6,6.32293E5,2.45745E5,7.42557E5,3.08546E5,1.98723E5,4.3357E5,8.8523E4,1.57222E5,4.86805E5,2.55752E5,2.24092E5,8.4454E4,2.8307E4,1.70416E5,4.5876E4,3.87694E5,7.6875E4,1.1648E4,1.48727E5,8.495E3,3.1938E5,1.67425E5,2.22799E5,3.2953E4,1.86048E5,3.8044E4,3.688E4,4.7574E4],"tree_param":{"num_deleted":"0","num_feature":"13","num_nodes":"31","size_leaf_vector":"1"}},{"base_weights":[1.0232516E-4,-9.190602E-2,1.573728E-1,-1.7326638E-1,-9.533964E-3,1.12119436E-1,2.54875E-1,-7.46639E-2,-2.3993012E-1,9.779671E-2,-7.14659E-2,1.6093165E-1,-2.9984357E-2,3.7822857E-1,2.0542099E-1,-2.4724288E-2,-3.443097E-3,-5.2996285E-2,-2.2113724E-2,2.3912711E-2,6.655102E-3,-4.6066106E-3,-2.0523285E-2,2.8553262E-2,1.3066011E-2,3.4463385E-4,-3.009358E-2,5.2409858E-2,3.3822652E-2,1.3352901E-2,3.3861678E-2],"categories":[],"categories_nodes":[],"categories_segments":[],"categories_sizes":[],"default_left":[0,0,0,0,0,0,0,0,0,0,0,0,0,0,0,0,0,0,0,0,0,0,0,0,0,0,0,0,0,0,0],"id":13,"left_children":[1,3,5,7,9,11,13,15,17,19,21,23,25,27,29,-1,-1,-1,-1,-1,-1,-1,-1,-1,-1,-1,-1,-1,-1,-1,-1],"loss_changes":[2.7913705E4,8.156381E3,3.1415664E3,4.024629E3,4.0199722E3,3.373204E3,1.3767969E3,1.7148481E3,1.9909883E3,9.7714014E2,1.3029362E3,1.3652617E3,1.1262483E3,3.7671777E2,1.5427451E3,0E0,0E0,0E0,0E0,0E0,0E0,0E0,0E0,0E0,0E0,0E0,0E0,0E0,0E0,0E0,0E0],"parents":[2147483647,0,0,1,1,2,2,3,3,4,4,5,5,6,6,7,7,8,8,9,9,10,10,11,11,12,12,13,13,14,14],"right_children":[2,4,6,8,10,12,14,16,18,20,22,24,26,28,30,-1,-1,-1,-1,-1,-1,-1,-1,-1,-1,-1,-1,-1,-1,-1,-1],"split_conditions":[4.44834E-2,-5.7598656E-1,1.3719912E0,-4.324166E-3,-3.8493972E-3,-5.991726E-4,2.239366E-3,-1.210181E0,-1.2415187E0,-5.1775933E-3,-1.0957873E-3,-3.8840312E-3,4.6620257E-3,-7.202281E-4,2.6298404E0,-2.4724288E-2,-3.443097E-3,-5.2996285E-2,-2.2113724E-2,2.3912711E-2,6.655102E-3,-4.6066106E-3,-2.0523285E-2,2.8553262E-2,1.3066011E-2,3.4463385E-4,-3.009358E-2,5.2409858E-2,3.3822652E-2,1.3352901E-2,3.3861678E-2],"split_indices":[12,12,12,7,7,7,7,12,12,7,7,7,7,7,12,0,0,0,0,0,0,0,0,0,0,0,0,0,0,0,0],"split_type":[0,0,0,0,0,0,0,0,0,0,0,0,0,0,0,0,0,0,0,0,0,0,0,0,0,0,0,0,0,0,0],"sum_hessian":[1.929046E6,1.217039E6,7.12007E5,6.12279E5,6.0476E5,4.86303E5,2.25704E5,2.46977E5,3.65302E5,2.21277E5,3.83483E5,3.61968E5,1.24335E5,6.459E4,1.61114E5,4.6691E4,2.00286E5,2.2228E4,3.43074E5,4.0062E4,1.81215E5,3.22288E5,6.1195E4,7.0749E4,2.91219E5,1.1068E5,1.3655E4,1.3898E4,5.0692E4,1.04638E5,5.6476E4],"tree_param":{"num_deleted":"0","num_feature":"13","num_nodes":"31","size_leaf_vector":"1"}},{"base_weights":[3.6064863E-5,-1.4381863E-1,8.217836E-2,-1.07610255E-1,-2.960747E-1,1.8301083E-2,1.745896E-1,9.642768E-2,-1.288497E-1,-2.6386696E-1,-5.270825E-1,1.070589E-1,-4.050049E-2,1.5242578E-1,3.0086708E-1,-3.3668482E-3,2.0322498E-2,-9.152403E-2,-1.1854293E-2,-3.9117973E-2,-2.217806E-2,-4.9140077E-2,-1.0718266E-1,2.4846544E-2,7.864798E-3,-1.2187907E-3,-1.5377273E-2,2.0520292E-2,6.493892E-3,3.4692753E-2,1.4273784E-2],"categories":[],"categories_nodes":[],"categories_segments":[],"categories_sizes":[],"default_left":[0,0,0,0,0,0,0,0,0,0,0,0,0,0,0,0,0,0,0,0,0,0,0,0,0,0,0,0,0,0,0],"id":14,"left_children":[1,3,5,7,9,11,13,15,17,19,21,23,25,27,29,-1,-1,-1,-1,-1,-1,-1,-1,-1,-1,-1,-1,-1,-1,-1,-1],"loss_changes":[2.2808682E4,3.867707E3,7.2527324E3,2.4562705E3,1.0027158E3,3.7916226E3,1.4054219E3,7.4247E2,4.160673E3,6.3376465E2,3.2003467E2,1.1630518E3,1.4014316E3,1.9724619E3,5.460537E2,0E0,0E0,0E0,0E0,0E0,0E0,0E0,0E0,0E0,0E0,0E0,0E0,0E0,0E0,0E0,0E0],"parents":[2147483647,0,0,1,1,2,2,3,3,4,4,5,5,6,6,7,7,8,8,9,9,10,10,11,11,12,12,13,13,14,14],"right_children":[2,4,6,8,10,12,14,16,18,20,22,24,26,28,30,-1,-1,-1,-1,-1,-1,-1,-1,-1,-1,-1,-1,-1,-1,-1,-1],"split_conditions":[-4.8965797E-1,-2.3993482E-3,3.8230485E-1,-5.879746E-3,8.4193825E-4,-3.567917E-3,2.5119011E0,-1.2843262E0,-1.4323484E0,-9.71338E-1,6.1900606E-3,-5.019018E-3,-1.044869E-3,1.0885579E-3,9.632166E-3,-3.3668482E-3,2.0322498E-2,-9.152403E-2,-1.1854293E-2,-3.9117973E-2,-2.217806E-2,-4.9140077E-2,-1.0718266E-1,2.4846544E-2,7.864798E-3,-1.2187907E-3,-1.5377273E-2,2.0520292E-2,6.493892E-3,3.4692753E-2,1.4273784E-2],"split_indices":[12,7,12,7,7,7,12,12,12,12,7,7,7,7,7,0,0,0,0,0,0,0,0,0,0,0,0,0,0,0,0],"split_type":[0,0,0,0,0,0,0,0,0,0,0,0,0,0,0,0,0,0,0,0,0,0,0,0,0,0,0,0,0,0,0],"sum_hessian":[1.930229E6,7.01573E5,1.228656E6,5.66786E5,1.34787E5,7.26488E5,5.02168E5,5.3437E4,5.13349E5,1.18296E5,1.6491E4,2.89501E5,4.36987E5,4.27191E5,7.4977E4,2.4091E4,2.9346E4,6.64E3,5.06709E5,2.9388E4,8.8908E4,1.5479E4,1.012E3,4.8433E4,2.41068E5,3.49604E5,8.7383E4,2.66451E5,1.6074E5,5.8063E4,1.6914E4],"tree_param":{"num_deleted":"0","num_feature":"13","num_nodes":"31","size_leaf_vector":"1"}},{"base_weights":[6.4084065E-6,-7.4786074E-2,1.3069104E-1,-1.4750916E-1,-1.4001637E-2,8.90192E-2,2.075061E-1,-2.6306614E-2,-1.9167002E-1,9.711E-2,-5.4005776E-2,1.2789312E-1,-6.396965E-2,2.4505357E-1,7.527923E-2,1.4954667E-2,-6.642149E-3,-4.5259535E-2,-1.7170524E-2,3.6723685E-2,8.650832E-3,-2.8976693E-3,-1.483831E-2,2.2587767E-2,9.454452E-3,-4.5628278E-3,-5.5770736E-2,3.9455414E-2,2.1816574E-2,-8.704445E-3,1.6817762E-2],"categories":[],"categories_nodes":[],"categories_segments":[],"categories_sizes":[],"default_left":[0,0,0,0,0,0,0,0,0,0,0,0,0,0,0,0,0,0,0,0,0,0,0,0,0,0,0,0,0,0,0],"id":15,"left_children":[1,3,5,7,9,11,13,15,17,19,21,23,25,27,29,-1,-1,-1,-1,-1,-1,-1,-1,-1,-1,-1,-1,-1,-1,-1,-1],"loss_changes":[1.8858035E4,5.424248E3,2.2479863E3,2.9902686E3,2.9710334E3,2.7077322E3,1.2262344E3,1.0525022E3,2.133039E3,5.06703E2,1.1609235E3,1.1862681E3,8.3535645E2,7.731719E2,8.237532E2,0E0,0E0,0E0,0E0,0E0,0E0,0E0,0E0,0E0,0E0,0E0,0E0,0E0,0E0,0E0,0E0],"parents":[2147483647,0,0,1,1,2,2,3,3,4,4,5,5,6,6,7,7,8,8,9,9,10,10,11,11,12,12,13,13,14,14],"right_children":[2,4,6,8,10,12,14,16,18,20,22,24,26,28,30,-1,-1,-1,-1,-1,-1,-1,-1,-1,-1,-1,-1,-1,-1,-1,-1],"split_conditions":[6.259329E-2,-6.175349E-1,1.2339637E0,-4.8786905E-3,-4.228637E-3,-2.607674E-4,7.4206023E-3,-6.3950717E-3,-1.2415187E0,-5.970176E-3,-1.6784413E-3,-3.6148306E-3,7.892946E-3,-1.09992936E-4,2.2532887E0,1.4954667E-2,-6.642149E-3,-4.5259535E-2,-1.7170524E-2,3.6723685E-2,8.650832E-3,-2.8976693E-3,-1.483831E-2,2.2587767E-2,9.454452E-3,-4.5628278E-3,-5.5770736E-2,3.9455414E-2,2.1816574E-2,-8.704445E-3,1.6817762E-2],"split_indices":[12,12,12,7,7,7,7,7,12,7,7,7,7,7,12,0,0,0,0,0,0,0,0,0,0,0,0,0,0,0,0],"split_type":[0,0,0,0,0,0,0,0,0,0,0,0,0,0,0,0,0,0,0,0,0,0,0,0,0,0,0,0,0,0,0],"sum_hessian":[1.929361E6,1.227085E6,7.02276E5,5.58677E5,6.68408E5,4.55287E5,2.46989E5,1.49197E5,4.0948E5,1.76944E5,4.91464E5,3.6304E5,9.2247E4,1.92364E5,5.4625E4,2.7712E4,1.21485E5,2.9103E4,3.80377E5,6.681E3,1.70263E5,3.88448E5,1.03016E5,9.2183E4,2.70857E5,8.8944E4,3.303E3,2.9321E4,1.63043E5,1.9883E4,3.4742E4],"tree_param":{"num_deleted":"0","num_feature":"13","num_nodes":"31","size_leaf_vector":"1"}},{"base_weights":[-2.2728971E-5,-9.129603E-2,8.831408E-2,-5.916455E-2,-2.0424321E-1,4.33597E-2,1.6862883E-1,-1.8606225E-1,-3.2122016E-2,-3.1137198E-1,-1.4822935E-1,1.0200751E-1,-2.9291315E-2,3.749919E-1,1.5336776E-1,1.25519885E-2,-2.4122035E-2,2.8594697E-2,-4.0151905E-3,-2.7711276E-2,-5.257369E-2,-1.35867745E-2,-4.138271E-2,2.7569218E-2,8.041777E-3,-1.3834893E-3,-2.9444242E-2,3.2369938E-2,4.9731255E-2,9.151882E-3,2.0445658E-2],"categories":[],"categories_nodes":[],"categories_segments":[],"categories_sizes":[],"default_left":[0,0,0,0,0,0,0,0,0,0,0,0,0,0,0,0,0,0,0,0,0,0,0,0,0,0,0,0,0,0,0],"id":16,"left_children":[1,3,5,7,9,11,13,15,17,19,21,23,25,27,29,-1,-1,-1,-1,-1,-1,-1,-1,-1,-1,-1,-1,-1,-1,-1,-1],"loss_changes":[1.5540911E4,3.4403809E3,3.5364746E3,2.5326472E3,1.2598379E3,2.6757783E3,1.1069453E3,2.2282144E3,1.5538572E3,5.2925244E2,4.5260303E2,1.3029832E3,1.1496066E3,1.5169824E2,1.0341865E3,0E0,0E0,0E0,0E0,0E0,0E0,0E0,0E0,0E0,0E0,0E0,0E0,0E0,0E0,0E0,0E0],"parents":[2147483647,0,0,1,1,2,2,3,3,4,4,5,5,6,6,7,7,8,8,9,9,10,10,11,11,12,12,13,13,14,14],"right_children":[2,4,6,8,10,12,14,16,18,20,22,24,26,28,30,-1,-1,-1,-1,-1,-1,-1,-1,-1,-1,-1,-1,-1,-1,-1,-1],"split_conditions":[-2.5653592E-1,-2.5006384E-3,7.6200575E-1,-1.0624522E0,-7.881528E-1,-2.6633854E-3,-2.5006384E-3,-6.7002857E-3,-6.0797473E-3,8.4193825E-4,1.9248914E-3,-4.801544E-3,2.239366E-3,1.0729666E0,1.6573547E0,1.25519885E-2,-2.4122035E-2,2.8594697E-2,-4.0151905E-3,-2.7711276E-2,-5.257369E-2,-1.35867745E-2,-4.138271E-2,2.7569218E-2,8.041777E-3,-1.3834893E-3,-2.9444242E-2,3.2369938E-2,4.9731255E-2,9.151882E-3,2.0445658E-2],"split_indices":[12,7,12,12,12,7,7,7,7,7,7,7,7,12,12,0,0,0,0,0,0,0,0,0,0,0,0,0,0,0,0],"split_type":[0,0,0,0,0,0,0,0,0,0,0,0,0,0,0,0,0,0,0,0,0,0,0,0,0,0,0,0,0,0,0],"sum_hessian":[1.927483E6,9.47985E5,9.79498E5,7.3803E5,2.09955E5,6.27994E5,3.51504E5,1.29648E5,6.08382E5,7.2085E4,1.3787E5,3.47485E5,2.80509E5,2.4203E4,3.27301E5,1.9499E4,1.10149E5,1.498E4,5.93402E5,6.2154E4,9.931E3,1.3174E5,6.13E3,3.8417E4,3.09068E5,2.65059E5,1.545E4,1.7055E4,7.148E3,1.4806E5,1.79241E5],"tree_param":{"num_deleted":"0","num_feature":"13","num_nodes":"31","size_leaf_vector":"1"}},{"base_weights":[5.0684765E-5,-5.9977606E-2,1.1168762E-1,-1.4538172E-1,-2.2380682E-2,8.327237E-2,1.8161762E-1,-6.1488035E-3,-1.8215518E-1,5.8278136E-2,-6.264442E-2,1.1470599E-1,-5.2109174E-2,2.1087739E-1,3.0742513E-2,-1.2489826E-2,6.4417766E-3,-7.08719E-2,-1.6953534E-2,2.0301916E-2,4.412211E-3,-5.117873E-3,-2.2822173E-2,1.9036708E-2,8.506663E-3,-4.223439E-3,-9.041145E-2,3.563874E-2,1.9014874E-2,-2.9006738E-3,2.6799833E-2],"categories":[],"categories_nodes":[],"categories_segments":[],"categories_sizes":[],"default_left":[0,0,0,0,0,0,0,0,0,0,0,0,0,0,0,0,0,0,0,0,0,0,0,0,0,0,0,0,0,0,0],"id":17,"left_children":[1,3,5,7,9,11,13,15,17,19,21,23,25,27,29,-1,-1,-1,-1,-1,-1,-1,-1,-1,-1,-1,-1,-1,-1,-1,-1],"loss_changes":[1.2921008E4,4.0261387E3,1.3397266E3,1.9623555E3,2.827452E3,2.0402014E3,8.599785E2,6.71041E2,2.0146279E3,5.9396765E2,1.1024785E3,8.7252E2,7.6002563E2,4.9206885E2,4.4858865E2,0E0,0E0,0E0,0E0,0E0,0E0,0E0,0E0,0E0,0E0,0E0,0E0,0E0,0E0,0E0,0E0],"parents":[2147483647,0,0,1,1,2,2,3,3,4,4,5,5,6,6,7,7,8,8,9,9,10,10,11,11,12,12,13,13,14,14],"right_children":[2,4,6,8,10,12,14,16,18,20,22,24,26,28,30,-1,-1,-1,-1,-1,-1,-1,-1,-1,-1,-1,-1,-1,-1,-1,-1],"split_conditions":[9.81825E-2,-7.881528E-1,1.5708206E0,-5.286119E-3,-4.04495E-3,6.245349E-4,8.976725E-3,-1.2843262E0,-1.4323484E0,-5.666709E-3,5.213113E-5,-3.3327565E-3,1.3078765E-2,5.1976216E-4,2.8560927E0,-1.2489826E-2,6.4417766E-3,-7.08719E-2,-1.6953534E-2,2.0301916E-2,4.412211E-3,-5.117873E-3,-2.2822173E-2,1.9036708E-2,8.506663E-3,-4.223439E-3,-9.041145E-2,3.563874E-2,1.9014874E-2,-2.9006738E-3,2.6799833E-2],"split_indices":[12,12,12,7,7,7,7,12,12,7,7,7,7,7,12,0,0,0,0,0,0,0,0,0,0,0,0,0,0,0,0],"split_type":[0,0,0,0,0,0,0,0,0,0,0,0,0,0,0,0,0,0,0,0,0,0,0,0,0,0,0,0,0,0,0],"sum_hessian":[1.928111E6,1.253885E6,6.74226E5,3.83266E5,8.70619E5,4.79421E5,1.94805E5,8.0077E4,3.03189E5,2.89891E5,5.80728E5,3.89082E5,9.0339E4,1.63162E5,3.1643E4,2.9848E4,5.0229E4,7.095E3,2.96094E5,2.5825E4,2.64066E5,5.4312E5,3.7608E4,1.09515E5,2.79567E5,8.9305E4,1.034E3,2.0343E4,1.42819E5,2.5278E4,6.365E3],"tree_param":{"num_deleted":"0","num_feature":"13","num_nodes":"31","size_leaf_vector":"1"}},{"base_weights":[1.2121671E-5,-1.0116658E-1,5.571136E-2,-5.594028E-2,-1.72999E-1,1.869891E-2,1.3426003E-1,-1.9637905E-1,-3.269869E-2,-1.4886272E-1,-3.14981E-1,7.067445E-2,-3.5281673E-2,3.1138274E-1,1.2081935E-1,1.0694062E-2,-3.334226E-2,2.2877721E-2,-4.5870086E-3,-2.4258444E-2,-1.2654203E-2,-2.9815441E-2,-7.8515306E-2,1.7876906E-2,5.0804713E-3,-2.1566122E-3,-2.0471599E-2,2.6723748E-2,4.5268033E-2,1.0078487E-2,2.4163585E-2],"categories":[],"categories_nodes":[],"categories_segments":[],"categories_sizes":[],"default_left":[0,0,0,0,0,0,0,0,0,0,0,0,0,0,0,0,0,0,0,0,0,0,0,0,0,0,0,0,0,0,0],"id":18,"left_children":[1,3,5,7,9,11,13,15,17,19,21,23,25,27,29,-1,-1,-1,-1,-1,-1,-1,-1,-1,-1,-1,-1,-1,-1,-1,-1],"loss_changes":[1.0864868E4,2.2237354E3,3.614928E3,1.371016E3,9.0623486E2,2.3712537E3,9.48041E2,2.4792761E3,1.2412256E3,4.7282324E2,3.0375342E2,9.2479346E2,9.634457E2,1.750813E2,8.9593945E2,0E0,0E0,0E0,0E0,0E0,0E0,0E0,0E0,0E0,0E0,0E0,0E0,0E0,0E0,0E0,0E0],"parents":[2147483647,0,0,1,1,2,2,3,3,4,4,5,5,6,6,7,7,8,8,9,9,10,10,11,11,12,12,13,13,14,14],"right_children":[2,4,6,8,10,12,14,16,18,20,22,24,26,28,30,-1,-1,-1,-1,-1,-1,-1,-1,-1,-1,-1,-1,-1,-1,-1,-1],"split_conditions":[-5.0915205E-1,-3.4769922E-3,6.218444E-1,-1.1896403E0,-5.991726E-4,-3.0850049E-3,-2.945603E-3,-6.7002857E-3,-6.0797473E-3,-1.0162171E0,5.221559E-3,-4.8786905E-3,9.640415E-4,9.645624E-1,2.6631083E0,1.0694062E-2,-3.334226E-2,2.2877721E-2,-4.5870086E-3,-2.4258444E-2,-1.2654203E-2,-2.9815441E-2,-7.8515306E-2,1.7876906E-2,5.0804713E-3,-2.1566122E-3,-2.0471599E-2,2.6723748E-2,4.5268033E-2,1.0078487E-2,2.4163585E-2],"split_indices":[12,7,12,12,7,7,7,7,7,12,7,7,7,12,12,0,0,0,0,0,0,0,0,0,0,0,0,0,0,0,0],"split_type":[0,0,0,0,0,0,0,0,0,0,0,0,0,0,0,0,0,0,0,0,0,0,0,0,0,0,0,0,0,0,0],"sum_hessian":[1.927905E6,6.84499E5,1.243406E6,4.2004E5,2.64459E5,8.45163E5,3.98243E5,5.9642E4,3.60398E5,2.26036E5,3.8423E4,4.30578E5,4.14585E5,2.8087E4,3.70156E5,1.8561E4,4.1081E4,1.7283E4,3.43115E5,4.3476E4,1.8256E5,3.7097E4,1.326E3,6.6857E4,3.63721E5,3.83539E5,3.1046E4,2.1403E4,6.684E3,3.17507E5,5.2649E4],"tree_param":{"num_deleted":"0","num_feature":"13","num_nodes":"31","size_leaf_vector":"1"}},{"base_weights":[-6.673324E-5,-5.9550986E-2,7.8604475E-2,-3.6606338E-2,-1.530716E-1,4.781721E-2,1.3550518E-1,-1.5438692E-1,-2.0094404E-2,-2.4707484E-1,-1.05188236E-1,8.398773E-2,-4.4833355E-2,2.0850083E-1,8.4834814E-2,1.0768403E-2,-2.1105846E-2,4.731701E-3,-4.5882594E-3,-2.242579E-2,-4.5122143E-2,-1.0283763E-2,-1.354652E-1,2.3651421E-2,6.704729E-3,-2.6464695E-3,-3.101549E-2,3.3520907E-2,1.8377213E-2,3.3341167E-3,1.9371498E-2],"categories":[],"categories_nodes":[],"categories_segments":[],"categories_sizes":[],"default_left":[0,0,0,0,0,0,0,0,0,0,0,0,0,0,0,0,0,0,0,0,0,0,0,0,0,0,0,0,0,0,0],"id":19,"left_children":[1,3,5,7,9,11,13,15,17,19,21,23,25,27,29,-1,-1,-1,-1,-1,-1,-1,-1,-1,-1,-1,-1,-1,-1,-1,-1],"loss_changes":[9.022401E3,2.3558079E3,1.4542036E3,1.7144883E3,9.735366E2,1.8051812E3,1.0779844E3,1.6099019E3,1.3441298E3,3.398955E2,4.2073145E2,1.0010176E3,7.3710925E2,3.7411475E2,9.6453687E2,0E0,0E0,0E0,0E0,0E0,0E0,0E0,0E0,0E0,0E0,0E0,0E0,0E0,0E0,0E0,0E0],"parents":[2147483647,0,0,1,1,2,2,3,3,4,4,5,5,6,6,7,7,8,8,9,9,10,10,11,11,12,12,13,13,14,14],"right_children":[2,4,6,8,10,12,14,16,18,20,22,24,26,28,30,-1,-1,-1,-1,-1,-1,-1,-1,-1,-1,-1,-1,-1,-1,-1,-1],"split_conditions":[-9.863646E-2,-2.2674352E-3,1.001557E0,-1.0908791E0,-7.3418313E-1,-1.4501142E-3,2.4042218E-3,-6.7002857E-3,-4.658758E-3,1.6295451E-3,1.3078765E-2,-4.5484616E-3,3.944169E-3,-1.7458629E-3,2.6298404E0,1.0768403E-2,-2.1105846E-2,4.731701E-3,-4.5882594E-3,-2.242579E-2,-4.5122143E-2,-1.0283763E-2,-1.354652E-1,2.3651421E-2,6.704729E-3,-2.6464695E-3,-3.101549E-2,3.3520907E-2,1.8377213E-2,3.3341167E-3,1.9371498E-2],"split_indices":[12,7,12,12,12,7,7,7,7,7,7,7,7,7,12,0,0,0,0,0,0,0,0,0,0,0,0,0,0,0,0],"split_type":[0,0,0,0,0,0,0,0,0,0,0,0,0,0,0,0,0,0,0,0,0,0,0,0,0,0,0,0,0,0,0],"sum_hessian":[1.927986E6,1.097872E6,8.30114E5,8.81583E5,2.16289E5,5.38662E5,2.91452E5,1.08394E5,7.73189E5,7.2991E4,1.43298E5,3.87416E5,1.51246E5,1.19417E5,1.72035E5,1.9272E4,8.9122E4,2.1394E5,5.59249E5,6.5655E4,7.336E3,1.4303E5,2.68E2,3.8726E4,3.4869E5,1.41454E5,9.792E3,1.9498E4,9.9919E4,1.16798E5,5.5237E4],"tree_param":{"num_deleted":"0","num_feature":"13","num_nodes":"31","size_leaf_vector":"1"}},{"base_weights":[-4.4088E-5,-7.287545E-2,5.3823434E-2,-3.7164215E-2,-1.2891772E-1,1.7416153E-2,1.0409674E-1,-1.8914492E-1,-2.1523995E-2,-2.1846227E-1,-1.0254474E-1,8.396798E-2,-1.6468022E-2,1.1362608E-1,-9.685599E-2,8.575341E-3,-3.659187E-2,2.5853632E-2,-3.040557E-3,-1.8055575E-2,-3.558137E-2,-9.688739E-3,-3.2875396E-2,2.4558334E-2,6.661409E-3,4.468788E-4,-9.005772E-3,9.548023E-3,2.0314245E-2,-3.5057113E-2,4.3301345E-4],"categories":[],"categories_nodes":[],"categories_segments":[],"categories_sizes":[],"default_left":[0,0,0,0,0,0,0,0,0,0,0,0,0,0,0,0,0,0,0,0,0,0,0,0,0,0,0,0,0,0,0],"id":20,"left_children":[1,3,5,7,9,11,13,15,17,19,21,23,25,27,29,-1,-1,-1,-1,-1,-1,-1,-1,-1,-1,-1,-1,-1,-1,-1,-1],"loss_changes":[7.566711E3,1.6411011E3,2.0292363E3,1.1905292E3,7.5367334E2,1.4500438E3,8.917344E2,2.2710127E3,1.1295779E3,3.7798608E2,3.1547925E2,6.084144E2,6.5648224E2,7.2213916E2,5.412538E2,0E0,0E0,0E0,0E0,0E0,0E0,0E0,0E0,0E0,0E0,0E0,0E0,0E0,0E0,0E0,0E0],"parents":[2147483647,0,0,1,1,2,2,3,3,4,4,5,5,6,6,7,7,8,8,9,9,10,10,11,11,12,12,13,13,14,14],"right_children":[2,4,6,8,10,12,14,16,18,20,22,24,26,28,30,-1,-1,-1,-1,-1,-1,-1,-1,-1,-1,-1,-1,-1,-1,-1,-1],"split_conditions":[-3.8365003E-1,-3.421058E-3,4.5714074E-1,-1.2843262E0,-9.45029E-1,-3.690369E-3,1.0418594E-2,-6.7002857E-3,-6.214612E-3,-9.4076927E-4,2.081828E-3,-5.247508E-3,-1.1885171E-3,2.2532887E0,2.1510105E0,8.575341E-3,-3.659187E-2,2.5853632E-2,-3.040557E-3,-1.8055575E-2,-3.558137E-2,-9.688739E-3,-3.2875396E-2,2.4558334E-2,6.661409E-3,4.468788E-4,-9.005772E-3,9.548023E-3,2.0314245E-2,-3.5057113E-2,4.3301345E-4],"split_indices":[12,7,12,12,12,7,7,7,7,7,7,7,7,12,12,0,0,0,0,0,0,0,0,0,0,0,0,0,0,0,0],"split_type":[0,0,0,0,0,0,0,0,0,0,0,0,0,0,0,0,0,0,0,0,0,0,0,0,0,0,0,0,0,0,0],"sum_hessian":[1.928685E6,8.20003E5,1.108682E6,5.00852E5,3.19151E5,6.43018E5,4.65664E5,4.6732E4,4.5412E5,7.261E4,2.46541E5,2.16935E5,4.26083E5,4.44582E5,2.1082E4,1.829E4,2.8442E4,1.3958E4,4.40162E5,5.6907E4,1.5703E4,2.40527E5,6.014E3,2.1034E4,1.95901E5,3.3171E5,9.4373E4,3.69652E5,7.493E4,6.01E3,1.5072E4],"tree_param":{"num_deleted":"0","num_feature":"13","num_nodes":"31","size_leaf_vector":"1"}},{"base_weights":[-1.9616335E-5,-3.8950603E-2,8.344858E-2,-8.228784E-2,-3.0488638E-5,8.725142E-2,-2.663758E-1,-6.565882E-2,-2.0689154E-1,8.064717E-2,-2.3313262E-2,7.405047E-2,1.6786462E-1,-6.4948106E-1,-1.11968726E-1,4.395626E-3,-8.102783E-3,-1.9000683E-2,-4.055541E-2,1.9169398E-2,6.4128004E-3,-5.9099537E-5,-7.121803E-3,1.0263196E-2,9.9142075E-5,2.8093318E-2,1.3976745E-2,-5.1101953E-2,-1.1447608E-1,-2.304512E-2,1.4706678E-2],"categories":[],"categories_nodes":[],"categories_segments":[],"categories_sizes":[],"default_left":[0,0,0,0,0,0,0,0,0,0,0,0,0,0,0,0,0,0,0,0,0,0,0,0,0,0,0,0,0,0,0],"id":21,"left_children":[1,3,5,7,9,11,13,15,17,19,21,23,25,27,29,-1,-1,-1,-1,-1,-1,-1,-1,-1,-1,-1,-1,-1,-1,-1,-1],"loss_changes":[6.2642705E3,2.2173381E3,8.157197E2,1.2888105E3,1.3009854E3,6.4547363E2,3.899898E2,9.2450757E2,2.4558301E2,2.84529E2,5.850593E2,1.088364E3,2.7111304E2,1.2930017E2,1.4431308E2,0E0,0E0,0E0,0E0,0E0,0E0,0E0,0E0,0E0,0E0,0E0,0E0,0E0,0E0,0E0,0E0],"parents":[2147483647,0,0,1,1,2,2,3,3,4,4,5,5,6,6,7,7,8,8,9,9,10,10,11,11,12,12,13,13,14,14],"right_children":[2,4,6,8,10,12,14,16,18,20,22,24,26,28,30,-1,-1,-1,-1,-1,-1,-1,-1,-1,-1,-1,-1,-1,-1,-1,-1],"split_conditions":[1.8784724E-1,-5.623841E-1,1.3078765E-2,-1.7136914E-3,-4.304368E-3,2.2532887E0,2.0900264E0,-5.666709E-3,2.5738925E-3,-5.5027287E-3,-2.240313E-3,1.2133357E-3,3.119298E-3,-4.1973764E-1,2.9469008E0,4.395626E-3,-8.102783E-3,-1.9000683E-2,-4.055541E-2,1.9169398E-2,6.4128004E-3,-5.9099537E-5,-7.121803E-3,1.0263196E-2,9.9142075E-5,2.8093318E-2,1.3976745E-2,-5.1101953E-2,-1.1447608E-1,-2.304512E-2,1.4706678E-2],"split_indices":[12,12,7,7,7,12,12,7,7,7,7,7,7,5,12,0,0,0,0,0,0,0,0,0,0,0,0,0,0,0,0],"split_type":[0,0,0,0,0,0,0,0,0,0,0,0,0,0,0,0,0,0,0,0,0,0,0,0,0,0,0,0,0,0,0],"sum_hessian":[1.927763E6,1.314608E6,6.13155E5,6.22007E5,6.92601E5,6.06562E5,6.593E3,5.48772E5,7.3235E4,1.55113E5,5.37488E5,5.21212E5,8.535E4,1.893E3,4.7E3,6.7481E4,4.81291E5,6.75E4,5.735E3,2.0085E4,1.35028E5,3.64567E5,1.72921E5,3.74646E5,1.46566E5,1.6986E4,6.8364E4,1.481E3,4.12E2,3.225E3,1.475E3],"tree_param":{"num_deleted":"0","num_feature":"13","num_nodes":"31","size_leaf_vector":"1"}},{"base_weights":[-3.6609483E-5,-7.032413E-2,3.777455E-2,-6.1765956E-3,-9.612277E-2,1.3658118E-2,9.5902294E-2,-1.5811725E-1,2.276305E-2,-7.6024777E-1,-9.2868134E-2,5.044725E-2,-3.0204521E-2,1.24428876E-1,1.8982291E-2,6.1939606E-3,-4.580116E-2,2.8539786E-2,7.8664825E-4,-9.754522E-2,-6.504973E-2,-1.628196E-2,-7.3490217E-3,1.5246743E-2,3.9430223E-3,-2.2402322E-3,-2.6654227E-2,2.9479483E-2,1.1322307E-2,-2.7156982E-3,1.5436527E-2],"categories":[],"categories_nodes":[],"categories_segments":[],"categories_sizes":[],"default_left":[0,0,0,0,0,0,0,0,0,0,0,0,0,0,0,0,0,0,0,0,0,0,0,0,0,0,0,0,0,0,0],"id":22,"left_children":[1,3,5,7,9,11,13,15,17,19,21,23,25,27,29,-1,-1,-1,-1,-1,-1,-1,-1,-1,-1,-1,-1,-1,-1,-1,-1],"loss_changes":[5.123195E3,1.115883E3,1.7571005E3,8.504088E2,1.0393506E3,1.4295327E3,8.064844E2,2.0420747E3,6.3559534E2,5.4751587E1,6.486543E2,5.4150977E2,7.451305E2,5.1181396E2,6.211097E2,0E0,0E0,0E0,0E0,0E0,0E0,0E0,0E0,0E0,0E0,0E0,0E0,0E0,0E0,0E0,0E0],"parents":[2147483647,0,0,1,1,2,2,3,3,4,4,5,5,6,6,7,7,8,8,9,9,10,10,11,11,12,12,13,13,14,14],"right_children":[2,4,6,8,10,12,14,16,18,20,22,24,26,28,30,-1,-1,-1,-1,-1,-1,-1,-1,-1,-1,-1,-1,-1,-1,-1,-1],"split_conditions":[-5.222875E-1,-4.7290227E-3,7.1277815E-1,-1.2952178E0,-1.609602E0,-2.9215554E-3,5.221559E-3,-6.7002857E-3,-6.3950717E-3,-3.6016838E-3,-1.0071353E0,-5.080479E-3,2.7502992E-3,-3.1043028E-3,2.7196417E0,6.1939606E-3,-4.580116E-2,2.8539786E-2,7.8664825E-4,-9.754522E-2,-6.504973E-2,-1.628196E-2,-7.3490217E-3,1.5246743E-2,3.9430223E-3,-2.2402322E-3,-2.6654227E-2,2.9479483E-2,1.1322307E-2,-2.7156982E-3,1.5436527E-2],"split_indices":[12,7,12,12,12,7,7,7,7,7,12,7,7,7,12,0,0,0,0,0,0,0,0,0,0,0,0,0,0,0,0],"split_type":[0,0,0,0,0,0,0,0,0,0,0,0,0,0,0,0,0,0,0,0,0,0,0,0,0,0,0,0,0,0,0],"sum_hessian":[1.927712E6,6.74282E5,1.25343E6,1.934E5,4.80882E5,8.85888E5,3.67542E5,3.0942E4,1.62458E5,2.344E3,4.78538E5,4.81792E5,4.04096E5,2.6811E5,9.9432E4,1.7847E4,1.3095E4,8.719E3,1.53739E5,7.89E2,1.555E3,1.03806E5,3.74732E5,4.6956E4,4.34836E5,3.91183E5,1.2913E4,1.6545E4,2.51565E5,7.4159E4,2.5273E4],"tree_param":{"num_deleted":"0","num_feature":"13","num_nodes":"31","size_leaf_vector":"1"}},{"base_weights":[5.3774686E-5,-3.2342885E-2,6.98367E-2,-9.678936E-2,-1.42385345E-2,7.479641E-2,-1.4107239E-1,9.323827E-2,-1.1122859E-1,3.7493303E-2,-3.855654E-2,5.3087804E-2,1.21385224E-1,-4.2111036E-1,-5.2331943E-2,2.6109243E-2,2.0500822E-3,-9.512576E-2,-9.561601E-3,2.7026907E-2,3.2286923E-3,-3.1303808E-3,-1.5758486E-2,9.189689E-3,-2.382632E-3,2.2296952E-2,9.689895E-3,-2.5199374E-2,-5.8818858E-2,-1.1807612E-2,1.6961318E-2],"categories":[],"categories_nodes":[],"categories_segments":[],"categories_sizes":[],"default_left":[0,0,0,0,0,0,0,0,0,0,0,0,0,0,0,0,0,0,0,0,0,0,0,0,0,0,0,0,0,0,0],"id":23,"left_children":[1,3,5,7,9,11,13,15,17,19,21,23,25,27,29,-1,-1,-1,-1,-1,-1,-1,-1,-1,-1,-1,-1,-1,-1,-1,-1],"loss_changes":[4.360569E3,1.5369528E3,6.3971826E2,7.926958E2,1.293729E3,6.0428906E2,3.4915506E2,2.4908841E2,3.5212124E3,3.98521E2,6.0390015E2,1.2166207E3,4.723794E2,9.538434E1,1.5572699E2,0E0,0E0,0E0,0E0,0E0,0E0,0E0,0E0,0E0,0E0,0E0,0E0,0E0,0E0,0E0,0E0],"parents":[2147483647,0,0,1,1,2,2,3,3,4,4,5,5,6,6,7,7,8,8,9,9,10,10,11,11,12,12,13,13,14,14],"right_children":[2,4,6,8,10,12,14,16,18,20,22,24,26,28,30,-1,-1,-1,-1,-1,-1,-1,-1,-1,-1,-1,-1,-1,-1,-1,-1],"split_conditions":[1.9198869E-1,-8.9373034E-1,1.14576155E-2,-6.7002857E-3,-4.098992E-3,1.5230491E0,1.9796555E0,-4.7898299E-1,-1.609602E0,-6.214612E-3,2.2883779E-4,-7.202281E-4,1.4862904E-3,1.3078765E-2,2.9469008E0,2.6109243E-2,2.0500822E-3,-9.512576E-2,-9.561601E-3,2.7026907E-2,3.2286923E-3,-3.1303808E-3,-1.5758486E-2,9.189689E-3,-2.382632E-3,2.2296952E-2,9.689895E-3,-2.5199374E-2,-5.8818858E-2,-1.1807612E-2,1.6961318E-2],"split_indices":[12,12,7,7,7,12,12,6,12,7,7,7,7,7,12,0,0,0,0,0,0,0,0,0,0,0,0,0,0,0,0],"split_type":[0,0,0,0,0,0,0,0,0,0,0,0,0,0,0,0,0,0,0,0,0,0,0,0,0,0,0,0,0,0,0],"sum_hessian":[1.928827E6,1.317281E6,6.11546E5,2.88894E5,1.028387E6,5.97496E5,1.405E4,2.0401E4,2.68493E5,3.28841E5,6.99546E5,4.07581E5,1.89915E5,3.38E3,1.067E4,6.167E3,1.4234E4,4.898E3,2.63595E5,7.193E3,3.21648E5,6.5937E5,4.0176E4,2.70894E5,1.36687E5,3.6885E4,1.5303E5,1.681E3,1.699E3,8.232E3,2.438E3],"tree_param":{"num_deleted":"0","num_feature":"13","num_nodes":"31","size_leaf_vector":"1"}},{"base_weights":[-1.0261293E-4,-4.2567544E-2,4.4756588E-2,-2.0522246E-2,-9.1551624E-2,2.6989365E-2,9.248133E-2,-1.736596E-1,-1.1466193E-2,-8.2757205E-2,-2.553796E-1,5.6143153E-2,-3.443915E-2,1.8000446E-1,6.0221285E-2,4.3664537E-3,-3.669728E-2,1.5355139E-2,-1.9098578E-3,-1.2019522E-2,-5.013243E-3,-2.295892E-2,-7.9807095E-2,1.665335E-2,4.374078E-3,-2.202749E-3,-2.6363919E-2,3.0625913E-2,1.5511624E-2,3.0952843E-3,1.53276E-2],"categories":[],"categories_nodes":[],"categories_segments":[],"categories_sizes":[],"default_left":[0,0,0,0,0,0,0,0,0,0,0,0,0,0,0,0,0,0,0,0,0,0,0,0,0,0,0,0,0,0,0],"id":24,"left_children":[1,3,5,7,9,11,13,15,17,19,21,23,25,27,29,-1,-1,-1,-1,-1,-1,-1,-1,-1,-1,-1,-1,-1,-1,-1,-1],"loss_changes":[3.6724365E3,1.0694485E3,7.949321E2,9.47167E2,4.4283472E2,1.2234624E3,7.18093E2,1.602087E3,8.121722E2,3.5629773E2,2.1898358E2,6.3428296E2,6.2548706E2,2.1518433E2,5.061319E2,0E0,0E0,0E0,0E0,0E0,0E0,0E0,0E0,0E0,0E0,0E0,0E0,0E0,0E0,0E0,0E0],"parents":[2147483647,0,0,1,1,2,2,3,3,4,4,5,5,6,6,7,7,8,8,9,9,10,10,11,11,12,12,13,13,14,14],"right_children":[2,4,6,8,10,12,14,16,18,20,22,24,26,28,30,-1,-1,-1,-1,-1,-1,-1,-1,-1,-1,-1,-1,-1,-1,-1,-1],"split_conditions":[-2.182088E-1,-2.9853433E-3,1.1915125E0,-1.3172364E0,1.4862904E-3,-1.7136914E-3,1.6295451E-3,-6.7002857E-3,-5.970176E-3,-6.4587396E-1,1.3078765E-2,-4.6359743E-3,4.4073532E-3,-1.6049151E-3,2.69002E0,4.3664537E-3,-3.669728E-2,1.5355139E-2,-1.9098578E-3,-1.2019522E-2,-5.013243E-3,-2.295892E-2,-7.9807095E-2,1.665335E-2,4.374078E-3,-2.202749E-3,-2.6363919E-2,3.0625913E-2,1.5511624E-2,3.0952843E-3,1.53276E-2],"split_indices":[12,7,12,12,7,7,7,7,7,12,7,7,7,7,12,0,0,0,0,0,0,0,0,0,0,0,0,0,0,0,0],"split_type":[0,0,0,0,0,0,0,0,0,0,0,0,0,0,0,0,0,0,0,0,0,0,0,0,0,0,0,0,0,0,0],"sum_hessian":[1.927844E6,9.90351E5,9.37493E5,6.82978E5,3.07373E5,6.83163E5,2.5433E5,3.8133E4,6.44845E5,2.91715E5,1.5658E4,4.63288E5,2.19875E5,6.8495E4,1.85835E5,1.7952E4,2.0181E4,2.8506E4,6.16339E5,1.35836E5,1.55879E5,1.4949E4,7.09E2,4.6792E4,4.16496E5,2.08581E5,1.1294E4,1.1277E4,5.7218E4,1.41371E5,4.4464E4],"tree_param":{"num_deleted":"0","num_feature":"13","num_nodes":"31","size_leaf_vector":"1"}},{"base_weights":[-5.086744E-5,-3.3043288E-2,4.7726944E-2,-2.0308916E-2,-1.0056143E-1,1.6709554E-1,4.1301865E-2,-1.3394989E-1,-1.2754593E-2,-1.6800252E-1,-6.7487866E-2,1.3658541E-1,3.0468377E-1,1.4932389E-2,7.630224E-2,4.979543E-3,-2.1594344E-2,7.659936E-3,-2.2823412E-3,-1.4103496E-2,-2.36521E-2,-6.4910627E-3,-1.0520339E-1,3.1805694E-2,1.1181124E-2,4.753444E-2,2.7960498E-2,2.795524E-3,-9.997797E-3,1.0014757E-2,-8.010015E-4],"categories":[],"categories_nodes":[],"categories_segments":[],"categories_sizes":[],"default_left":[0,0,0,0,0,0,0,0,0,0,0,0,0,0,0,0,0,0,0,0,0,0,0,0,0,0,0,0,0,0,0],"id":25,"left_children":[1,3,5,7,9,11,13,15,17,19,21,23,25,27,29,-1,-1,-1,-1,-1,-1,-1,-1,-1,-1,-1,-1,-1,-1,-1,-1],"loss_changes":[3.039565E3,9.8071533E2,6.0408435E2,8.238306E2,4.0369897E2,1.6883716E2,6.898258E2,9.0119446E2,8.0956433E2,1.1000903E2,3.0807788E2,1.4801141E2,3.1115112E1,6.378989E2,6.456637E2,0E0,0E0,0E0,0E0,0E0,0E0,0E0,0E0,0E0,0E0,0E0,0E0,0E0,0E0,0E0,0E0],"parents":[2147483647,0,0,1,1,2,2,3,3,4,4,5,5,6,6,7,7,8,8,9,9,10,10,11,11,12,12,13,13,14,14],"right_children":[2,4,6,8,10,12,14,16,18,20,22,24,26,28,30,-1,-1,-1,-1,-1,-1,-1,-1,-1,-1,-1,-1,-1,-1,-1,-1],"split_conditions":[-4.942749E-2,-1.9477948E-3,-4.4439966E-3,-1.2415187E0,-7.266262E-1,4.2196062E-1,8.7459636E-1,-6.7002857E-3,-5.365402E-3,5.213113E-5,1.14576155E-2,-5.365402E-3,-5.2116406E-3,4.174841E-4,6.576522E-3,4.979543E-3,-2.1594344E-2,7.659936E-3,-2.2823412E-3,-1.4103496E-2,-2.36521E-2,-6.4910627E-3,-1.0520339E-1,3.1805694E-2,1.1181124E-2,4.753444E-2,2.7960498E-2,2.795524E-3,-9.997797E-3,1.0014757E-2,-8.010015E-4],"split_indices":[12,7,7,12,12,12,12,7,7,7,7,7,7,7,7,0,0,0,0,0,0,0,0,0,0,0,0,0,0,0,0],"split_type":[0,0,0,0,0,0,0,0,0,0,0,0,0,0,0,0,0,0,0,0,0,0,0,0,0,0,0,0,0,0,0],"sum_hessian":[1.928282E6,1.140632E6,7.8765E5,9.59639E5,1.80993E5,4.0229E4,7.47421E5,5.9815E4,8.99824E5,5.9553E4,1.2144E5,3.2929E4,7.3E3,4.26269E5,3.21152E5,1.8456E4,4.1359E4,9.1127E4,8.08697E5,4.2736E4,1.6817E4,1.21124E5,3.16E2,3.954E3,2.8975E4,9.33E2,6.367E3,3.82878E5,4.3391E4,2.50348E5,7.0804E4],"tree_param":{"num_deleted":"0","num_feature":"13","num_nodes":"31","size_leaf_vector":"1"}},{"base_weights":[5.6945737E-5,-5.2751604E-2,2.5857091E-2,-2.3109183E-2,-8.651245E-2,3.1388937E-3,5.6966618E-2,-1.5139583E-1,-1.0611021E-2,-7.2863884E-2,-1.6317227E-1,3.4088004E-2,-2.708265E-2,1.460359E-1,4.5010135E-2,4.187909E-3,-4.273405E-2,2.2469519E-2,-1.7731717E-3,-5.456583E-2,-7.1046236E-3,-2.3638688E-2,-1.2934743E-2,1.22622615E-2,2.5475647E-3,-2.597667E-3,-1.10589646E-1,1.2211069E-2,2.814706E-2,1.5679303E-3,8.087072E-3],"categories":[],"categories_nodes":[],"categories_segments":[],"categories_sizes":[],"default_left":[0,0,0,0,0,0,0,0,0,0,0,0,0,0,0,0,0,0,0,0,0,0,0,0,0,0,0,0,0,0,0],"id":26,"left_children":[1,3,5,7,9,11,13,15,17,19,21,23,25,27,29,-1,-1,-1,-1,-1,-1,-1,-1,-1,-1,-1,-1,-1,-1,-1,-1],"loss_changes":[2.627858E3,6.335088E2,9.1574866E2,5.404514E2,3.0964673E2,7.0042645E2,5.8237585E2,1.59596E3,5.146557E2,2.1586182E2,1.1073706E2,2.8209906E2,4.5203186E2,2.096814E2,5.071244E2,0E0,0E0,0E0,0E0,0E0,0E0,0E0,0E0,0E0,0E0,0E0,0E0,0E0,0E0,0E0,0E0],"parents":[2147483647,0,0,1,1,2,2,3,3,4,4,5,5,6,6,7,7,8,8,9,9,10,10,11,11,12,12,13,13,14,14],"right_children":[2,4,6,8,10,12,14,16,18,20,22,24,26,28,30,-1,-1,-1,-1,-1,-1,-1,-1,-1,-1,-1,-1,-1,-1,-1,-1],"split_conditions":[-5.489015E-1,-3.8311784E-3,2.9591098E-1,-1.3968965E0,-9.4076927E-4,-3.2964898E-3,-3.2750769E-3,-6.7002857E-3,-6.3950717E-3,-1.609602E0,-9.802091E-1,-5.286119E-3,1.3078765E-2,7.874401E-1,1.4246346E0,4.187909E-3,-4.273405E-2,2.2469519E-2,-1.7731717E-3,-5.456583E-2,-7.1046236E-3,-2.3638688E-2,-1.2934743E-2,1.22622615E-2,2.5475647E-3,-2.597667E-3,-1.10589646E-1,1.2211069E-2,2.814706E-2,1.5679303E-3,8.087072E-3],"split_indices":[12,7,12,12,7,7,7,7,7,12,12,7,7,12,12,0,0,0,0,0,0,0,0,0,0,0,0,0,0,0,0],"split_type":[0,0,0,0,0,0,0,0,0,0,0,0,0,0,0,0,0,0,0,0,0,0,0,0,0,0,0,0,0,0,0],"sum_hessian":[1.928746E6,6.33033E5,1.295713E6,3.37077E5,2.95956E5,7.48853E5,5.4686E5,2.9923E4,3.07154E5,2.51229E5,4.4727E4,3.69973E5,3.7888E5,6.472E4,4.8214E5,1.7598E4,1.2325E4,9.021E3,2.98133E5,9.61E2,2.50268E5,1.4132E4,3.0595E4,3.2798E4,3.37175E5,3.78493E5,3.87E2,5.5005E4,9.715E3,2.65217E5,2.16923E5],"tree_param":{"num_deleted":"0","num_feature":"13","num_nodes":"31","size_leaf_vector":"1"}},{"base_weights":[-1.5411368E-5,-4.7142856E-2,2.332146E-2,8.52884E-4,-6.5267056E-2,3.5943454E-3,5.2158758E-2,-1.1431821E-1,2.1372851E-2,-5.055626E-1,-6.301489E-2,6.279129E-2,-9.999474E-3,6.1887596E-2,-5.499611E-2,3.9020262E-3,-4.1559245E-2,1.9994322E-2,9.7469427E-4,-6.797107E-2,-4.0816102E-2,-1.0438162E-2,-4.597879E-3,2.0783333E-2,5.5317217E-3,-9.382136E-4,-9.781946E-2,1.6235713E-2,5.350418E-3,-1.9871444E-2,1.307569E-3],"categories":[],"categories_nodes":[],"categories_segments":[],"categories_sizes":[],"default_left":[0,0,0,0,0,0,0,0,0,0,0,0,0,0,0,0,0,0,0,0,0,0,0,0,0,0,0,0,0,0,0],"id":27,"left_children":[1,3,5,7,9,11,13,15,17,19,21,23,25,27,29,-1,-1,-1,-1,-1,-1,-1,-1,-1,-1,-1,-1,-1,-1,-1,-1],"loss_changes":[2.1216313E3,5.5576135E2,7.339663E2,4.138837E2,4.598463E2,6.165046E2,5.4636E2,1.2234957E3,3.085914E2,3.97536E1,3.251598E2,1.5508856E2,3.7238568E2,4.0467627E2,4.2677362E2,0E0,0E0,0E0,0E0,0E0,0E0,0E0,0E0,0E0,0E0,0E0,0E0,0E0,0E0,0E0,0E0],"parents":[2147483647,0,0,1,1,2,2,3,3,4,4,5,5,6,6,7,7,8,8,9,9,10,10,11,11,12,12,13,13,14,14],"right_children":[2,4,6,8,10,12,14,16,18,20,22,24,26,28,30,-1,-1,-1,-1,-1,-1,-1,-1,-1,-1,-1,-1,-1,-1,-1,-1],"split_conditions":[-5.422045E-1,-4.801544E-3,3.3783874E-1,-1.3968965E0,-1.609602E0,-4.4034766E-3,8.409668E-3,-6.7002857E-3,-6.3950717E-3,-3.6016838E-3,-9.71338E-1,-5.879746E-3,1.3078765E-2,-3.6727106E-3,2.0900264E0,3.9020262E-3,-4.1559245E-2,1.9994322E-2,9.7469427E-4,-6.797107E-2,-4.0816102E-2,-1.0438162E-2,-4.597879E-3,2.0783333E-2,5.5317217E-3,-9.382136E-4,-9.781946E-2,1.6235713E-2,5.350418E-3,-1.9871444E-2,1.307569E-3],"split_indices":[12,7,12,12,12,7,7,7,7,7,12,7,7,7,12,0,0,0,0,0,0,0,0,0,0,0,0,0,0,0,0],"split_type":[0,0,0,0,0,0,0,0,0,0,0,0,0,0,0,0,0,0,0,0,0,0,0,0,0,0,0,0,0,0,0],"sum_hessian":[1.929092E6,6.3889E5,1.290202E6,1.75127E5,4.63763E5,7.66116E5,5.24086E5,2.6483E4,1.48644E5,2.359E3,4.61404E5,1.43073E5,6.23043E5,4.80464E5,4.3622E4,1.7551E4,8.932E3,9.085E3,1.39559E5,8.44E2,1.515E3,1.3459E5,3.26814E5,7.01E3,1.36063E5,6.22647E5,3.96E2,3.7002E4,4.43462E5,1.402E4,2.9602E4],"tree_param":{"num_deleted":"0","num_feature":"13","num_nodes":"31","size_leaf_vector":"1"}},{"base_weights":[3.3429915E-5,-3.4051105E-2,2.6743446E-2,-1.3515445E-2,-6.309667E-2,2.8529901E-2,-2.541985E-1,-1.1651272E-1,-5.3863027E-3,-1.3310906E-1,-5.26374E-2,1.6391167E-2,7.406351E-2,-7.724272E-1,-1.7824753E-1,3.6988524E-3,-2.658788E-2,1.1035233E-2,-1.2713446E-3,-1.0664818E-2,-2.1048807E-2,-5.1893196E-3,-7.753665E-2,2.862616E-3,-6.6002095E-3,1.8931147E-2,5.741333E-3,-5.82879E-2,-1.0460607E-1,-2.6305461E-2,8.050061E-3],"categories":[],"categories_nodes":[],"categories_segments":[],"categories_sizes":[],"default_left":[0,0,0,0,0,0,0,0,0,0,0,0,0,0,0,0,0,0,0,0,0,0,0,0,0,0,0,0,0,0,0],"id":28,"left_children":[1,3,5,7,9,11,13,15,17,19,21,23,25,27,29,-1,-1,-1,-1,-1,-1,-1,-1,-1,-1,-1,-1,-1,-1,-1,-1],"loss_changes":[1.7557297E3,5.0538647E2,5.426668E2,4.1559393E2,2.5697522E2,5.9384186E2,2.6876965E2,8.325211E2,3.9014264E2,9.33689E1,1.6418005E2,8.551216E2,4.3392322E2,4.466992E1,1.3080548E2,0E0,0E0,0E0,0E0,0E0,0E0,0E0,0E0,0E0,0E0,0E0,0E0,0E0,0E0,0E0,0E0],"parents":[2147483647,0,0,1,1,2,2,3,3,4,4,5,5,6,6,7,7,8,8,9,9,10,10,11,11,12,12,13,13,14,14],"right_children":[2,4,6,8,10,12,14,16,18,20,22,24,26,28,30,-1,-1,-1,-1,-1,-1,-1,-1,-1,-1,-1,-1,-1,-1,-1,-1],"split_conditions":[-3.4792233E-1,-3.512245E-3,1.3078765E-2,-1.3172364E0,-1.0624522E0,1.3293194E0,1.2813697E0,-6.7002857E-3,-5.970176E-3,-1.2338171E-3,9.632166E-3,-2.9309776E-5,2.2883779E-4,-4.8384E-1,2.9469008E0,3.6988524E-3,-2.658788E-2,1.1035233E-2,-1.2713446E-3,-1.0664818E-2,-2.1048807E-2,-5.1893196E-3,-7.753665E-2,2.862616E-3,-6.6002095E-3,1.8931147E-2,5.741333E-3,-5.82879E-2,-1.0460607E-1,-2.6305461E-2,8.050061E-3],"split_indices":[12,7,7,12,12,12,12,7,7,7,7,7,7,5,12,0,0,0,0,0,0,0,0,0,0,0,0,0,0,0,0],"split_type":[0,0,0,0,0,0,0,0,0,0,0,0,0,0,0,0,0,0,0,0,0,0,0,0,0,0,0,0,0,0,0],"sum_hessian":[1.928527E6,8.47296E5,1.081231E6,4.96362E5,3.50934E5,1.0744E6,6.831E3,3.6309E4,4.60053E5,4.5611E4,3.05323E5,8.48264E5,2.26136E5,8.72E2,5.959E3,1.7907E4,1.8402E4,2.739E4,4.32663E5,3.399E4,1.1621E4,3.0501E5,3.13E2,7.38588E5,1.09676E5,2.8545E4,1.97591E5,5.17E2,3.55E2,4.488E3,1.471E3],"tree_param":{"num_deleted":"0","num_feature":"13","num_nodes":"31","size_leaf_vector":"1"}},{"base_weights":[1.46025395E-5,-1.8636912E-2,4.1427843E-2,-9.26308E-3,-7.829686E-2,4.72764E-2,-7.497557E-2,-4.2915165E-2,4.8065963E-3,-7.0451595E-2,-2.8133935E-1,3.7425637E-2,1.16871595E-1,-2.2291534E-1,-9.6409805E-3,-1.3729556E-2,-3.4743573E-3,4.044759E-3,-7.815358E-4,-1.29972985E-2,-5.3264666E-3,-2.2899603E-2,-6.1718237E-2,5.991269E-3,-1.1687196E-3,1.00642275E-2,2.2117853E-2,-1.632399E-2,-4.303564E-2,-4.9006366E-3,1.6693547E-2],"categories":[],"categories_nodes":[],"categories_segments":[],"categories_sizes":[],"default_left":[0,0,0,0,0,0,0,0,0,0,0,0,0,0,0,0,0,0,0,0,0,0,0,0,0,0,0,0,0,0,0],"id":29,"left_children":[1,3,5,7,9,11,13,15,17,19,21,23,25,27,29,-1,-1,-1,-1,-1,-1,-1,-1,-1,-1,-1,-1,-1,-1,-1,-1],"loss_changes":[1.489548E3,7.4356744E2,4.0767468E2,5.4404974E2,2.87568E2,3.90886E2,2.768975E2,2.612707E2,3.6451474E2,1.7781537E2,1.17920166E2,5.516234E2,1.1965588E2,1.0856906E2,1.381454E2,0E0,0E0,0E0,0E0,0E0,0E0,0E0,0E0,0E0,0E0,0E0,0E0,0E0,0E0,0E0,0E0],"parents":[2147483647,0,0,1,1,2,2,3,3,4,4,5,5,6,6,7,7,8,8,9,9,10,10,11,11,12,12,13,13,14,14],"right_children":[2,4,6,8,10,12,14,16,18,20,22,24,26,28,30,-1,-1,-1,-1,-1,-1,-1,-1,-1,-1,-1,-1,-1,-1,-1,-1],"split_conditions":[2.0434624E-1,-1.6049151E-3,9.632166E-3,-7.960205E-1,3.515396E-3,2.2532887E0,2.1510105E0,-1.4323484E0,-4.4241156E-3,-7.725377E-1,1.3078765E-2,7.318946E-4,2.8560927E0,1.3078765E-2,2.9469008E0,-1.3729556E-2,-3.4743573E-3,4.044759E-3,-7.815358E-4,-1.29972985E-2,-5.3264666E-3,-2.2899603E-2,-6.1718237E-2,5.991269E-3,-1.1687196E-3,1.00642275E-2,2.2117853E-2,-1.632399E-2,-4.303564E-2,-4.9006366E-3,1.6693547E-2],"split_indices":[12,7,7,12,7,12,12,12,7,12,7,7,12,7,12,0,0,0,0,0,0,0,0,0,0,0,0,0,0,0,0],"split_type":[0,0,0,0,0,0,0,0,0,0,0,0,0,0,0,0,0,0,0,0,0,0,0,0,0,0,0,0,0,0,0],"sum_hessian":[1.928416E6,1.329598E6,5.98818E5,1.149058E6,1.8054E5,5.70171E5,2.8647E4,3.38773E5,8.10285E5,1.73825E5,6.715E3,4.99475E5,7.0696E4,8.775E3,1.9872E4,2.6993E4,3.1178E5,2.11909E5,5.98376E5,3.8945E4,1.3488E5,5.811E3,9.04E2,3.42607E5,1.56868E5,6.1179E4,9.517E3,6.816E3,1.959E3,1.625E4,3.622E3],"tree_param":{"num_deleted":"0","num_feature":"13","num_nodes":"31","size_leaf_vector":"1"}}]},"name":"gbtree"},"learner_model_param":{"base_score":"2.5223305E0","boost_from_average":"1","num_class":"0","num_feature":"13","num_target":"1"},"objective":{"name":"reg:squarederror","reg_loss_param":{"scale_pos_weight":"1"}}},"version":[2,0,3]}